<?xml version="1.0"?>
<opencv_storage>
<cascade>
  <stageType>BOOST</stageType>
  <featureType>HAAR</featureType>
  <height>16</height>
  <width>16</width>
  <stageParams>
    <boostType>GAB</boostType>
    <minHitRate>9.9800002574920654e-01</minHitRate>
    <maxFalseAlarm>9.0000003576278687e-01</maxFalseAlarm>
    <weightTrimRate>9.4999999999999996e-01</weightTrimRate>
    <maxDepth>1</maxDepth>
    <maxWeakCount>10000</maxWeakCount></stageParams>
  <featureParams>
    <maxCatCount>0</maxCatCount>
    <featSize>1</featSize>
    <mode>BASIC</mode></featureParams>
  <stageNum>20</stageNum>
  <stages>
    <!-- stage 0 -->
    <_>
      <maxWeakCount>8</maxWeakCount>
      <stageThreshold>-6.5486347675323486e-01</stageThreshold>
      <weakClassifiers>
        <_>
          <internalNodes>
            0 -1 1473 1.0944029316306114e-02</internalNodes>
          <leafValues>
            -6.8983829021453857e-01 9.6687400341033936e-01</leafValues></_>
        <_>
          <internalNodes>
            0 -1 1108 2.4068661034107208e-02</internalNodes>
          <leafValues>
            -4.2592698335647583e-01 9.1442817449569702e-01</leafValues></_>
        <_>
          <internalNodes>
            0 -1 2278 -6.2344092875719070e-03</internalNodes>
          <leafValues>
            8.9208167791366577e-01 -1.7387759685516357e-01</leafValues></_>
        <_>
          <internalNodes>
            0 -1 2881 1.4710849151015282e-02</internalNodes>
          <leafValues>
            -2.6207736134529114e-01 6.4529764652252197e-01</leafValues></_>
        <_>
          <internalNodes>
            0 -1 2474 4.9052843824028969e-03</internalNodes>
          <leafValues>
            3.2460859417915344e-01 -7.2283941507339478e-01</leafValues></_>
        <_>
          <internalNodes>
            0 -1 2013 -1.1053337715566158e-02</internalNodes>
          <leafValues>
            6.5916228294372559e-01 -3.2615721225738525e-01</leafValues></_>
        <_>
          <internalNodes>
            0 -1 1428 -1.6029063612222672e-02</internalNodes>
          <leafValues>
            5.7090604305267334e-01 -3.0382972955703735e-01</leafValues></_>
        <_>
          <internalNodes>
            0 -1 884 -8.9636916527524590e-05</internalNodes>
          <leafValues>
            3.0503162741661072e-01 -4.5447722077369690e-01</leafValues></_></weakClassifiers></_>
    <!-- stage 1 -->
    <_>
      <maxWeakCount>18</maxWeakCount>
      <stageThreshold>-7.0849555730819702e-01</stageThreshold>
      <weakClassifiers>
        <_>
          <internalNodes>
            0 -1 1107 8.6889248341321945e-03</internalNodes>
          <leafValues>
            -7.0094823837280273e-01 9.3513095378875732e-01</leafValues></_>
        <_>
          <internalNodes>
            0 -1 1109 4.5000631362199783e-02</internalNodes>
          <leafValues>
            -2.4982711672782898e-01 8.2975721359252930e-01</leafValues></_>
        <_>
          <internalNodes>
            0 -1 2281 -8.5070580244064331e-03</internalNodes>
          <leafValues>
            7.8844648599624634e-01 -3.1423231959342957e-01</leafValues></_>
        <_>
          <internalNodes>
            0 -1 698 -9.6019497141242027e-03</internalNodes>
          <leafValues>
            5.7789927721023560e-01 -3.4130692481994629e-01</leafValues></_>
        <_>
          <internalNodes>
            0 -1 2256 9.1873100027441978e-03</internalNodes>
          <leafValues>
            -2.3598633706569672e-01 6.8069893121719360e-01</leafValues></_>
        <_>
          <internalNodes>
            0 -1 2652 8.0541009083390236e-03</internalNodes>
          <leafValues>
            -4.7087958455085754e-01 3.4588491916656494e-01</leafValues></_>
        <_>
          <internalNodes>
            0 -1 3096 4.6212626621127129e-03</internalNodes>
          <leafValues>
            -2.4913789331912994e-01 6.0015285015106201e-01</leafValues></_>
        <_>
          <internalNodes>
            0 -1 2855 -8.3215069025754929e-05</internalNodes>
          <leafValues>
            3.7560772895812988e-01 -3.9529600739479065e-01</leafValues></_>
        <_>
          <internalNodes>
            0 -1 1555 -2.7694268283084966e-05</internalNodes>
          <leafValues>
            3.4657019376754761e-01 -3.4791594743728638e-01</leafValues></_>
        <_>
          <internalNodes>
            0 -1 3259 3.1202420359477401e-05</internalNodes>
          <leafValues>
            -3.6565294861793518e-01 2.9942181706428528e-01</leafValues></_>
        <_>
          <internalNodes>
            0 -1 2116 7.1486234664916992e-02</internalNodes>
          <leafValues>
            1.3514810800552368e-01 -7.0676565170288086e-01</leafValues></_>
        <_>
          <internalNodes>
            0 -1 1077 -1.0445681214332581e-01</internalNodes>
          <leafValues>
            -7.7803117036819458e-01 1.3710890710353851e-01</leafValues></_>
        <_>
          <internalNodes>
            0 -1 3186 3.2912736060097814e-05</internalNodes>
          <leafValues>
            -3.3788681030273438e-01 3.1106144189834595e-01</leafValues></_>
        <_>
          <internalNodes>
            0 -1 1825 -1.4340297784656286e-03</internalNodes>
          <leafValues>
            4.8753038048744202e-01 -2.0103397965431213e-01</leafValues></_>
        <_>
          <internalNodes>
            0 -1 1787 -9.6718063578009605e-03</internalNodes>
          <leafValues>
            4.0876209735870361e-01 -2.3929786682128906e-01</leafValues></_>
        <_>
          <internalNodes>
            0 -1 2911 -1.3084797188639641e-02</internalNodes>
          <leafValues>
            6.5117096900939941e-01 -1.5944969654083252e-01</leafValues></_>
        <_>
          <internalNodes>
            0 -1 2856 -3.2065123377833515e-05</internalNodes>
          <leafValues>
            3.8091912865638733e-01 -2.3270317912101746e-01</leafValues></_>
        <_>
          <internalNodes>
            0 -1 2091 -2.1911079529672861e-03</internalNodes>
          <leafValues>
            -7.9286134243011475e-01 1.1630678921937943e-01</leafValues></_></weakClassifiers></_>
    <!-- stage 2 -->
    <_>
      <maxWeakCount>44</maxWeakCount>
      <stageThreshold>-7.0218515396118164e-01</stageThreshold>
      <weakClassifiers>
        <_>
          <internalNodes>
            0 -1 1473 2.3629441857337952e-02</internalNodes>
          <leafValues>
            9.2922486364841461e-02 9.2291516065597534e-01</leafValues></_>
        <_>
          <internalNodes>
            0 -1 2450 6.2693711370229721e-03</internalNodes>
          <leafValues>
            7.2036534547805786e-01 -3.8843971490859985e-01</leafValues></_>
        <_>
          <internalNodes>
            0 -1 2278 -1.3081669807434082e-02</internalNodes>
          <leafValues>
            6.9384551048278809e-01 -2.5587269663810730e-01</leafValues></_>
        <_>
          <internalNodes>
            0 -1 531 5.3268633782863617e-02</internalNodes>
          <leafValues>
            -4.5478612184524536e-01 4.0919789671897888e-01</leafValues></_>
        <_>
          <internalNodes>
            0 -1 2882 6.9223288446664810e-03</internalNodes>
          <leafValues>
            -4.3524953722953796e-01 3.6698859930038452e-01</leafValues></_>
        <_>
          <internalNodes>
            0 -1 2334 -7.5435154139995575e-03</internalNodes>
          <leafValues>
            4.1545051336288452e-01 -2.8305080533027649e-01</leafValues></_>
        <_>
          <internalNodes>
            0 -1 436 3.5270822991151363e-05</internalNodes>
          <leafValues>
            -4.5751774311065674e-01 1.9142979383468628e-01</leafValues></_>
        <_>
          <internalNodes>
            0 -1 2520 -8.1546008004806936e-05</internalNodes>
          <leafValues>
            1.3323862850666046e-01 -6.1114531755447388e-01</leafValues></_>
        <_>
          <internalNodes>
            0 -1 2536 -2.6022015139460564e-02</internalNodes>
          <leafValues>
            -6.1530655622482300e-01 1.1353718489408493e-01</leafValues></_>
        <_>
          <internalNodes>
            0 -1 3098 1.7637428827583790e-03</internalNodes>
          <leafValues>
            -6.2239193916320801e-01 1.2521450221538544e-01</leafValues></_>
        <_>
          <internalNodes>
            0 -1 3580 -3.7409152835607529e-02</internalNodes>
          <leafValues>
            6.2547326087951660e-01 -1.2407005578279495e-01</leafValues></_>
        <_>
          <internalNodes>
            0 -1 1928 -8.5039093391969800e-05</internalNodes>
          <leafValues>
            2.4936962127685547e-01 -2.5136148929595947e-01</leafValues></_>
        <_>
          <internalNodes>
            0 -1 1873 -8.0564866948407143e-05</internalNodes>
          <leafValues>
            2.2791840136051178e-01 -2.8496205806732178e-01</leafValues></_>
        <_>
          <internalNodes>
            0 -1 2839 8.5932813817635179e-05</internalNodes>
          <leafValues>
            -2.5642716884613037e-01 2.2592654824256897e-01</leafValues></_>
        <_>
          <internalNodes>
            0 -1 2535 2.5770112872123718e-02</internalNodes>
          <leafValues>
            1.1089783906936646e-01 -5.7614022493362427e-01</leafValues></_>
        <_>
          <internalNodes>
            0 -1 1790 -1.3353811576962471e-02</internalNodes>
          <leafValues>
            2.7407932281494141e-01 -2.2193184494972229e-01</leafValues></_>
        <_>
          <internalNodes>
            0 -1 3103 1.9457119703292847e-01</internalNodes>
          <leafValues>
            -8.8807970285415649e-02 7.0743954181671143e-01</leafValues></_>
        <_>
          <internalNodes>
            0 -1 109 5.5683556944131851e-02</internalNodes>
          <leafValues>
            -1.2382031977176666e-01 4.6536174416542053e-01</leafValues></_>
        <_>
          <internalNodes>
            0 -1 190 -1.3523182272911072e-01</internalNodes>
          <leafValues>
            5.3006106615066528e-01 -1.1815594136714935e-01</leafValues></_>
        <_>
          <internalNodes>
            0 -1 667 1.0007552802562714e-01</internalNodes>
          <leafValues>
            -8.7316371500492096e-02 6.3325279951095581e-01</leafValues></_>
        <_>
          <internalNodes>
            0 -1 1312 -1.5500372275710106e-02</internalNodes>
          <leafValues>
            -4.8038032650947571e-01 1.2173662334680557e-01</leafValues></_>
        <_>
          <internalNodes>
            0 -1 3559 -6.3060957472771406e-05</internalNodes>
          <leafValues>
            2.0644083619117737e-01 -2.5628820061683655e-01</leafValues></_>
        <_>
          <internalNodes>
            0 -1 2534 -1.1463788338005543e-02</internalNodes>
          <leafValues>
            4.6345353126525879e-01 -1.1632003635168076e-01</leafValues></_>
        <_>
          <internalNodes>
            0 -1 2343 -2.9752114787697792e-03</internalNodes>
          <leafValues>
            -4.8059779405593872e-01 1.1398336291313171e-01</leafValues></_>
        <_>
          <internalNodes>
            0 -1 3716 -6.7494635004550219e-05</internalNodes>
          <leafValues>
            2.2156408429145813e-01 -2.2224356234073639e-01</leafValues></_>
        <_>
          <internalNodes>
            0 -1 2971 9.2880465672351420e-05</internalNodes>
          <leafValues>
            -2.1583208441734314e-01 2.1966783702373505e-01</leafValues></_>
        <_>
          <internalNodes>
            0 -1 1429 -5.8360933326184750e-03</internalNodes>
          <leafValues>
            -7.2057396173477173e-01 6.6820494830608368e-02</leafValues></_>
        <_>
          <internalNodes>
            0 -1 3281 4.2575127445161343e-03</internalNodes>
          <leafValues>
            -1.1249823868274689e-01 5.0727462768554688e-01</leafValues></_>
        <_>
          <internalNodes>
            0 -1 2623 6.6008375142700970e-05</internalNodes>
          <leafValues>
            -2.1592335402965546e-01 2.0735569298267365e-01</leafValues></_>
        <_>
          <internalNodes>
            0 -1 2087 9.3251496553421021e-02</internalNodes>
          <leafValues>
            5.5989678949117661e-02 -7.2872030735015869e-01</leafValues></_>
        <_>
          <internalNodes>
            0 -1 1760 -1.3035632669925690e-02</internalNodes>
          <leafValues>
            -4.9761348962783813e-01 8.4612764418125153e-02</leafValues></_>
        <_>
          <internalNodes>
            0 -1 1901 9.0252186055295169e-05</internalNodes>
          <leafValues>
            -1.8505705893039703e-01 2.3222722113132477e-01</leafValues></_>
        <_>
          <internalNodes>
            0 -1 2390 -1.2850388884544373e-02</internalNodes>
          <leafValues>
            2.3688162863254547e-01 -1.8611858785152435e-01</leafValues></_>
        <_>
          <internalNodes>
            0 -1 2473 3.5494591429596767e-05</internalNodes>
          <leafValues>
            -3.5993346571922302e-01 1.1509346961975098e-01</leafValues></_>
        <_>
          <internalNodes>
            0 -1 1966 -4.1972631588578224e-03</internalNodes>
          <leafValues>
            2.0769605040550232e-01 -2.0390945672988892e-01</leafValues></_>
        <_>
          <internalNodes>
            0 -1 2622 2.7270196005702019e-03</internalNodes>
          <leafValues>
            6.5250143408775330e-02 -5.7925593852996826e-01</leafValues></_>
        <_>
          <internalNodes>
            0 -1 1503 -6.8534880876541138e-02</internalNodes>
          <leafValues>
            -5.8071327209472656e-01 5.8993030339479446e-02</leafValues></_>
        <_>
          <internalNodes>
            0 -1 912 -5.3345933556556702e-02</internalNodes>
          <leafValues>
            -7.1220886707305908e-01 4.8397850245237350e-02</leafValues></_>
        <_>
          <internalNodes>
            0 -1 1164 -6.1023933085380122e-05</internalNodes>
          <leafValues>
            1.9381164014339447e-01 -2.0450763404369354e-01</leafValues></_>
        <_>
          <internalNodes>
            0 -1 1636 6.4920131990220398e-05</internalNodes>
          <leafValues>
            -1.9879803061485291e-01 2.0786398649215698e-01</leafValues></_>
        <_>
          <internalNodes>
            0 -1 158 7.6085805892944336e-02</internalNodes>
          <leafValues>
            7.9746387898921967e-02 -4.5489776134490967e-01</leafValues></_>
        <_>
          <internalNodes>
            0 -1 1191 -7.7359974966384470e-05</internalNodes>
          <leafValues>
            1.8226133286952972e-01 -2.1729138493537903e-01</leafValues></_>
        <_>
          <internalNodes>
            0 -1 1814 6.1417032033205032e-02</internalNodes>
          <leafValues>
            8.8719576597213745e-02 -4.3094655871391296e-01</leafValues></_>
        <_>
          <internalNodes>
            0 -1 1780 -6.4566232264041901e-02</internalNodes>
          <leafValues>
            -5.5591452121734619e-01 7.8957207500934601e-02</leafValues></_></weakClassifiers></_>
    <!-- stage 3 -->
    <_>
      <maxWeakCount>62</maxWeakCount>
      <stageThreshold>-6.1853444576263428e-01</stageThreshold>
      <weakClassifiers>
        <_>
          <internalNodes>
            0 -1 225 2.9668722301721573e-02</internalNodes>
          <leafValues>
            2.1378743648529053e-01 9.2302125692367554e-01</leafValues></_>
        <_>
          <internalNodes>
            0 -1 133 2.4499996006488800e-01</internalNodes>
          <leafValues>
            -2.3094037547707558e-02 7.3348867893218994e-01</leafValues></_>
        <_>
          <internalNodes>
            0 -1 1969 -1.8618270754814148e-02</internalNodes>
          <leafValues>
            5.8871877193450928e-01 -2.0276024937629700e-01</leafValues></_>
        <_>
          <internalNodes>
            0 -1 1805 7.8161153942346573e-03</internalNodes>
          <leafValues>
            -3.1089445948600769e-01 4.4878503680229187e-01</leafValues></_>
        <_>
          <internalNodes>
            0 -1 2494 -3.7811518268426880e-05</internalNodes>
          <leafValues>
            1.9531406462192535e-01 -6.0483980178833008e-01</leafValues></_>
        <_>
          <internalNodes>
            0 -1 443 -2.5374174118041992e-02</internalNodes>
          <leafValues>
            3.7081259489059448e-01 -2.9338842630386353e-01</leafValues></_>
        <_>
          <internalNodes>
            0 -1 2028 -6.2054637819528580e-03</internalNodes>
          <leafValues>
            -6.1338824033737183e-01 9.2035397887229919e-02</leafValues></_>
        <_>
          <internalNodes>
            0 -1 2623 -1.3490717392414808e-03</internalNodes>
          <leafValues>
            -5.9617412090301514e-01 9.9857419729232788e-02</leafValues></_>
        <_>
          <internalNodes>
            0 -1 884 -4.2122709564864635e-03</internalNodes>
          <leafValues>
            1.9757743179798126e-01 -3.3111929893493652e-01</leafValues></_>
        <_>
          <internalNodes>
            0 -1 2014 -8.4848366677761078e-03</internalNodes>
          <leafValues>
            3.1011432409286499e-01 -2.4413177371025085e-01</leafValues></_>
        <_>
          <internalNodes>
            0 -1 1820 3.8861369830556214e-05</internalNodes>
          <leafValues>
            -6.6177421808242798e-01 9.7609512507915497e-02</leafValues></_>
        <_>
          <internalNodes>
            0 -1 1857 2.1129198372364044e-02</internalNodes>
          <leafValues>
            7.0125989615917206e-02 -6.9076162576675415e-01</leafValues></_>
        <_>
          <internalNodes>
            0 -1 3506 1.4739248435944319e-03</internalNodes>
          <leafValues>
            8.6691811680793762e-02 -5.9854537248611450e-01</leafValues></_>
        <_>
          <internalNodes>
            0 -1 3057 3.0457307730102912e-05</internalNodes>
          <leafValues>
            -3.4516319632530212e-01 1.6526231169700623e-01</leafValues></_>
        <_>
          <internalNodes>
            0 -1 1310 -5.1925634033977985e-03</internalNodes>
          <leafValues>
            -4.8639908432960510e-01 1.0755012929439545e-01</leafValues></_>
        <_>
          <internalNodes>
            0 -1 1396 1.5476066619157791e-02</internalNodes>
          <leafValues>
            -1.4211477339267731e-01 3.9373877644538879e-01</leafValues></_>
        <_>
          <internalNodes>
            0 -1 1429 4.1855451854644343e-05</internalNodes>
          <leafValues>
            -6.7077857255935669e-01 8.3567462861537933e-02</leafValues></_>
        <_>
          <internalNodes>
            0 -1 3174 -1.7002984881401062e-02</internalNodes>
          <leafValues>
            -6.2886220216751099e-01 7.1826785802841187e-02</leafValues></_>
        <_>
          <internalNodes>
            0 -1 2259 -5.1050325855612755e-03</internalNodes>
          <leafValues>
            1.6950926184654236e-01 -3.1727215647697449e-01</leafValues></_>
        <_>
          <internalNodes>
            0 -1 686 -1.4915640931576490e-03</internalNodes>
          <leafValues>
            -4.7987449169158936e-01 1.0611697286367416e-01</leafValues></_>
        <_>
          <internalNodes>
            0 -1 21 -5.2542828023433685e-02</internalNodes>
          <leafValues>
            6.4178562164306641e-01 -8.3637185394763947e-02</leafValues></_>
        <_>
          <internalNodes>
            0 -1 870 1.4080142136663198e-03</internalNodes>
          <leafValues>
            1.0896576941013336e-01 -4.5821067690849304e-01</leafValues></_>
        <_>
          <internalNodes>
            0 -1 3429 -5.5629543960094452e-02</internalNodes>
          <leafValues>
            3.9162704348564148e-01 -1.1997105181217194e-01</leafValues></_>
        <_>
          <internalNodes>
            0 -1 3133 1.5477961301803589e-01</internalNodes>
          <leafValues>
            -8.5387207567691803e-02 5.1965785026550293e-01</leafValues></_>
        <_>
          <internalNodes>
            0 -1 2731 2.8581556398421526e-03</internalNodes>
          <leafValues>
            -2.8162452578544617e-01 1.5727718174457550e-01</leafValues></_>
        <_>
          <internalNodes>
            0 -1 3223 -2.8881124308099970e-05</internalNodes>
          <leafValues>
            1.8730191886425018e-01 -2.2390942275524139e-01</leafValues></_>
        <_>
          <internalNodes>
            0 -1 2236 -1.1555029079318047e-02</internalNodes>
          <leafValues>
            3.7339693307876587e-01 -1.2794412672519684e-01</leafValues></_>
        <_>
          <internalNodes>
            0 -1 301 -1.6505719395354390e-03</internalNodes>
          <leafValues>
            -4.2115640640258789e-01 1.1328513920307159e-01</leafValues></_>
        <_>
          <internalNodes>
            0 -1 55 -1.9813251495361328e-01</internalNodes>
          <leafValues>
            5.5656135082244873e-01 -8.6898148059844971e-02</leafValues></_>
        <_>
          <internalNodes>
            0 -1 53 4.7310836613178253e-02</internalNodes>
          <leafValues>
            -1.6961568593978882e-01 2.9809081554412842e-01</leafValues></_>
        <_>
          <internalNodes>
            0 -1 1410 1.6299178823828697e-03</internalNodes>
          <leafValues>
            -4.7795394062995911e-01 9.0935163199901581e-02</leafValues></_>
        <_>
          <internalNodes>
            0 -1 1069 3.5632349550724030e-02</internalNodes>
          <leafValues>
            6.4546778798103333e-02 -5.4299825429916382e-01</leafValues></_>
        <_>
          <internalNodes>
            0 -1 870 -2.0867367275059223e-03</internalNodes>
          <leafValues>
            -4.0074995160102844e-01 9.1882899403572083e-02</leafValues></_>
        <_>
          <internalNodes>
            0 -1 1920 9.9151004105806351e-03</internalNodes>
          <leafValues>
            -1.1149625480175018e-01 3.3885821700096130e-01</leafValues></_>
        <_>
          <internalNodes>
            0 -1 2256 6.1380453407764435e-03</internalNodes>
          <leafValues>
            -1.5760809183120728e-01 2.4002203345298767e-01</leafValues></_>
        <_>
          <internalNodes>
            0 -1 2270 1.4985125511884689e-02</internalNodes>
          <leafValues>
            5.9270069003105164e-02 -6.0312592983245850e-01</leafValues></_>
        <_>
          <internalNodes>
            0 -1 3348 1.7834862228482962e-03</internalNodes>
          <leafValues>
            8.6637623608112335e-02 -3.9886984229087830e-01</leafValues></_>
        <_>
          <internalNodes>
            0 -1 143 2.7817245572805405e-02</internalNodes>
          <leafValues>
            -7.1445420384407043e-02 5.3824609518051147e-01</leafValues></_>
        <_>
          <internalNodes>
            0 -1 916 -8.5246302187442780e-02</internalNodes>
          <leafValues>
            -5.3692328929901123e-01 7.1625091135501862e-02</leafValues></_>
        <_>
          <internalNodes>
            0 -1 1700 -1.9205726683139801e-02</internalNodes>
          <leafValues>
            2.7556365728378296e-01 -1.4138391613960266e-01</leafValues></_>
        <_>
          <internalNodes>
            0 -1 2567 2.0542185753583908e-02</internalNodes>
          <leafValues>
            4.3941736221313477e-02 -7.7087759971618652e-01</leafValues></_>
        <_>
          <internalNodes>
            0 -1 7 3.5335985012352467e-03</internalNodes>
          <leafValues>
            1.0513062030076981e-01 -2.8743788599967957e-01</leafValues></_>
        <_>
          <internalNodes>
            0 -1 98 -1.4541894197463989e-03</internalNodes>
          <leafValues>
            -3.7585520744323730e-01 9.8228193819522858e-02</leafValues></_>
        <_>
          <internalNodes>
            0 -1 1824 4.3882923200726509e-03</internalNodes>
          <leafValues>
            -8.9416943490505219e-02 3.8080245256423950e-01</leafValues></_>
        <_>
          <internalNodes>
            0 -1 1543 -1.1998451373074204e-04</internalNodes>
          <leafValues>
            1.0716497153043747e-01 -3.3127647638320923e-01</leafValues></_>
        <_>
          <internalNodes>
            0 -1 1421 -5.9349313378334045e-02</internalNodes>
          <leafValues>
            -6.7680114507675171e-01 4.3411001563072205e-02</leafValues></_>
        <_>
          <internalNodes>
            0 -1 245 1.1178767681121826e-01</internalNodes>
          <leafValues>
            6.0877576470375061e-02 -5.0346440076828003e-01</leafValues></_>
        <_>
          <internalNodes>
            0 -1 965 7.1940347552299500e-02</internalNodes>
          <leafValues>
            -7.0627816021442413e-02 4.7651872038841248e-01</leafValues></_>
        <_>
          <internalNodes>
            0 -1 2360 1.5077718999236822e-03</internalNodes>
          <leafValues>
            9.7617529332637787e-02 -3.3701041340827942e-01</leafValues></_>
        <_>
          <internalNodes>
            0 -1 3687 2.7788890525698662e-02</internalNodes>
          <leafValues>
            -5.7454336434602737e-02 5.8821755647659302e-01</leafValues></_>
        <_>
          <internalNodes>
            0 -1 3745 1.2831198982894421e-03</internalNodes>
          <leafValues>
            9.9402397871017456e-02 -3.3451703190803528e-01</leafValues></_>
        <_>
          <internalNodes>
            0 -1 3745 -1.5522516332566738e-03</internalNodes>
          <leafValues>
            -3.3267867565155029e-01 9.8488457500934601e-02</leafValues></_>
        <_>
          <internalNodes>
            0 -1 1121 -1.0832051746547222e-02</internalNodes>
          <leafValues>
            2.2728906571865082e-01 -1.4813187718391418e-01</leafValues></_>
        <_>
          <internalNodes>
            0 -1 374 -6.8086381070315838e-03</internalNodes>
          <leafValues>
            2.2292593121528625e-01 -1.4163020253181458e-01</leafValues></_>
        <_>
          <internalNodes>
            0 -1 284 -1.6857136506587267e-03</internalNodes>
          <leafValues>
            -3.6631041765213013e-01 8.5179448127746582e-02</leafValues></_>
        <_>
          <internalNodes>
            0 -1 2657 -1.1878687888383865e-02</internalNodes>
          <leafValues>
            3.6758142709732056e-01 -9.1969802975654602e-02</leafValues></_>
        <_>
          <internalNodes>
            0 -1 2911 -1.2575291097164154e-02</internalNodes>
          <leafValues>
            3.4986913204193115e-01 -9.5444865524768829e-02</leafValues></_>
        <_>
          <internalNodes>
            0 -1 2677 -3.7565587263088673e-05</internalNodes>
          <leafValues>
            1.1859871447086334e-01 -2.9170203208923340e-01</leafValues></_>
        <_>
          <internalNodes>
            0 -1 3697 -1.0914407903328538e-03</internalNodes>
          <leafValues>
            -3.6446648836135864e-01 9.3116492033004761e-02</leafValues></_>
        <_>
          <internalNodes>
            0 -1 3224 -6.7097615101374686e-05</internalNodes>
          <leafValues>
            1.7079901695251465e-01 -1.6904662549495697e-01</leafValues></_>
        <_>
          <internalNodes>
            0 -1 1963 -5.3494073450565338e-02</internalNodes>
          <leafValues>
            -7.8378087282180786e-01 3.5274837166070938e-02</leafValues></_>
        <_>
          <internalNodes>
            0 -1 2436 -4.0547493845224380e-03</internalNodes>
          <leafValues>
            2.3024159669876099e-01 -1.2611183524131775e-01</leafValues></_></weakClassifiers></_>
    <!-- stage 4 -->
    <_>
      <maxWeakCount>83</maxWeakCount>
      <stageThreshold>-5.6557703018188477e-01</stageThreshold>
      <weakClassifiers>
        <_>
          <internalNodes>
            0 -1 1871 -4.3953922577202320e-03</internalNodes>
          <leafValues>
            9.0993601083755493e-01 3.6771509051322937e-01</leafValues></_>
        <_>
          <internalNodes>
            0 -1 2256 1.0645906440913677e-02</internalNodes>
          <leafValues>
            1.6301341354846954e-01 8.0799126625061035e-01</leafValues></_>
        <_>
          <internalNodes>
            0 -1 1449 1.1705944314599037e-02</internalNodes>
          <leafValues>
            -4.0414020419120789e-01 4.1376337409019470e-01</leafValues></_>
        <_>
          <internalNodes>
            0 -1 2392 1.5399903059005737e-02</internalNodes>
          <leafValues>
            -4.0776076912879944e-01 3.0542993545532227e-01</leafValues></_>
        <_>
          <internalNodes>
            0 -1 2881 2.9651798307895660e-02</internalNodes>
          <leafValues>
            -2.5958263874053955e-01 4.0781241655349731e-01</leafValues></_>
        <_>
          <internalNodes>
            0 -1 2320 7.4066361412405968e-03</internalNodes>
          <leafValues>
            -2.8963887691497803e-01 3.3120352029800415e-01</leafValues></_>
        <_>
          <internalNodes>
            0 -1 3096 8.4585892036557198e-03</internalNodes>
          <leafValues>
            -1.4821060001850128e-01 4.6696773171424866e-01</leafValues></_>
        <_>
          <internalNodes>
            0 -1 2767 -7.6808777521364391e-05</internalNodes>
          <leafValues>
            1.2128771096467972e-01 -5.4918986558914185e-01</leafValues></_>
        <_>
          <internalNodes>
            0 -1 1555 -7.8130440670065582e-05</internalNodes>
          <leafValues>
            2.2434850037097931e-01 -2.7676302194595337e-01</leafValues></_>
        <_>
          <internalNodes>
            0 -1 1289 -3.4713299100985751e-05</internalNodes>
          <leafValues>
            1.6879397630691528e-01 -3.1384783983230591e-01</leafValues></_>
        <_>
          <internalNodes>
            0 -1 2399 1.0747415944933891e-03</internalNodes>
          <leafValues>
            -6.4355087280273438e-01 7.9714454710483551e-02</leafValues></_>
        <_>
          <internalNodes>
            0 -1 1983 3.1973078876035288e-05</internalNodes>
          <leafValues>
            -2.8264561295509338e-01 1.8722565472126007e-01</leafValues></_>
        <_>
          <internalNodes>
            0 -1 472 -6.2584332190454006e-03</internalNodes>
          <leafValues>
            1.9893358647823334e-01 -2.5655537843704224e-01</leafValues></_>
        <_>
          <internalNodes>
            0 -1 2480 -7.8083365224301815e-05</internalNodes>
          <leafValues>
            1.3412986695766449e-01 -3.5502392053604126e-01</leafValues></_>
        <_>
          <internalNodes>
            0 -1 2543 9.8939230665564537e-03</internalNodes>
          <leafValues>
            7.9956471920013428e-02 -5.7252824306488037e-01</leafValues></_>
        <_>
          <internalNodes>
            0 -1 2592 2.9693721444346011e-05</internalNodes>
          <leafValues>
            -2.5491258502006531e-01 1.9924773275852203e-01</leafValues></_>
        <_>
          <internalNodes>
            0 -1 1213 1.6058944165706635e-03</internalNodes>
          <leafValues>
            8.8141903281211853e-02 -4.8379006981849670e-01</leafValues></_>
        <_>
          <internalNodes>
            0 -1 13 -3.7953637540340424e-02</internalNodes>
          <leafValues>
            8.0296462774276733e-01 -5.9719838201999664e-02</leafValues></_>
        <_>
          <internalNodes>
            0 -1 461 3.3966898627113551e-05</internalNodes>
          <leafValues>
            -2.6059681177139282e-01 1.6610865294933319e-01</leafValues></_>
        <_>
          <internalNodes>
            0 -1 3184 -3.1536917958874255e-05</internalNodes>
          <leafValues>
            1.6058877110481262e-01 -2.6842743158340454e-01</leafValues></_>
        <_>
          <internalNodes>
            0 -1 862 -3.0858859419822693e-02</internalNodes>
          <leafValues>
            -5.6772577762603760e-01 6.7632287740707397e-02</leafValues></_>
        <_>
          <internalNodes>
            0 -1 150 2.0916622132062912e-02</internalNodes>
          <leafValues>
            -1.5867465734481812e-01 2.4958139657974243e-01</leafValues></_>
        <_>
          <internalNodes>
            0 -1 2020 -2.9308521188795567e-03</internalNodes>
          <leafValues>
            -4.4315961003303528e-01 8.4727182984352112e-02</leafValues></_>
        <_>
          <internalNodes>
            0 -1 2017 2.2582467645406723e-03</internalNodes>
          <leafValues>
            7.8838340938091278e-02 -4.5703536272048950e-01</leafValues></_>
        <_>
          <internalNodes>
            0 -1 2531 2.9511186294257641e-03</internalNodes>
          <leafValues>
            -1.4020803570747375e-01 2.7294120192527771e-01</leafValues></_>
        <_>
          <internalNodes>
            0 -1 1193 2.2090533748269081e-03</internalNodes>
          <leafValues>
            9.0928912162780762e-02 -3.8524627685546875e-01</leafValues></_>
        <_>
          <internalNodes>
            0 -1 35 -6.3535720109939575e-02</internalNodes>
          <leafValues>
            4.7642982006072998e-01 -7.6418809592723846e-02</leafValues></_>
        <_>
          <internalNodes>
            0 -1 623 9.3957461416721344e-02</internalNodes>
          <leafValues>
            -9.4087913632392883e-02 3.9432358741760254e-01</leafValues></_>
        <_>
          <internalNodes>
            0 -1 3201 1.0050177574157715e-01</internalNodes>
          <leafValues>
            -6.1284437775611877e-02 5.5118459463119507e-01</leafValues></_>
        <_>
          <internalNodes>
            0 -1 3549 -2.8247341106180102e-05</internalNodes>
          <leafValues>
            1.7788909375667572e-01 -2.0651933550834656e-01</leafValues></_>
        <_>
          <internalNodes>
            0 -1 2774 -2.1969331428408623e-03</internalNodes>
          <leafValues>
            3.8651603460311890e-01 -9.8540157079696655e-02</leafValues></_>
        <_>
          <internalNodes>
            0 -1 1402 4.7244466841220856e-03</internalNodes>
          <leafValues>
            -7.1506962180137634e-02 4.5636853575706482e-01</leafValues></_>
        <_>
          <internalNodes>
            0 -1 1373 7.1756988763809204e-03</internalNodes>
          <leafValues>
            -9.6448950469493866e-02 3.7295386195182800e-01</leafValues></_>
        <_>
          <internalNodes>
            0 -1 3027 8.5478328401222825e-05</internalNodes>
          <leafValues>
            -1.9311872124671936e-01 1.7097474634647369e-01</leafValues></_>
        <_>
          <internalNodes>
            0 -1 2762 -3.6899175494909286e-02</internalNodes>
          <leafValues>
            -4.5239189267158508e-01 7.3861584067344666e-02</leafValues></_>
        <_>
          <internalNodes>
            0 -1 1425 4.7853658907115459e-03</internalNodes>
          <leafValues>
            -4.9429211020469666e-01 6.9431871175765991e-02</leafValues></_>
        <_>
          <internalNodes>
            0 -1 2574 -8.8595878332853317e-03</internalNodes>
          <leafValues>
            2.2998309135437012e-01 -1.3800109922885895e-01</leafValues></_>
        <_>
          <internalNodes>
            0 -1 371 3.5482458770275116e-03</internalNodes>
          <leafValues>
            9.7207754850387573e-02 -3.2932350039482117e-01</leafValues></_>
        <_>
          <internalNodes>
            0 -1 2568 1.0885892435908318e-02</internalNodes>
          <leafValues>
            -5.3996156901121140e-02 6.3255935907363892e-01</leafValues></_>
        <_>
          <internalNodes>
            0 -1 2341 -2.5182613171637058e-03</internalNodes>
          <leafValues>
            -4.3191123008728027e-01 7.8758716583251953e-02</leafValues></_>
        <_>
          <internalNodes>
            0 -1 2622 -2.3596845567226410e-03</internalNodes>
          <leafValues>
            -4.3980780243873596e-01 6.8343423306941986e-02</leafValues></_>
        <_>
          <internalNodes>
            0 -1 1427 1.3357812166213989e-01</internalNodes>
          <leafValues>
            4.3300133198499680e-02 -6.3782143592834473e-01</leafValues></_>
        <_>
          <internalNodes>
            0 -1 1746 -3.5261665470898151e-03</internalNodes>
          <leafValues>
            1.0725097358226776e-01 -2.7519756555557251e-01</leafValues></_>
        <_>
          <internalNodes>
            0 -1 1270 -2.9031023586867377e-05</internalNodes>
          <leafValues>
            1.6102774441242218e-01 -2.1342965960502625e-01</leafValues></_>
        <_>
          <internalNodes>
            0 -1 3576 -3.6060788261238486e-05</internalNodes>
          <leafValues>
            1.7020033299922943e-01 -1.7962734401226044e-01</leafValues></_>
        <_>
          <internalNodes>
            0 -1 3777 -3.7854961119592190e-03</internalNodes>
          <leafValues>
            -3.2023349404335022e-01 8.5158884525299072e-02</leafValues></_>
        <_>
          <internalNodes>
            0 -1 3281 2.8440314345061779e-03</internalNodes>
          <leafValues>
            -9.1010525822639465e-02 3.1989371776580811e-01</leafValues></_>
        <_>
          <internalNodes>
            0 -1 3638 -2.5023794732987881e-03</internalNodes>
          <leafValues>
            -3.9835593104362488e-01 7.0790268480777740e-02</leafValues></_>
        <_>
          <internalNodes>
            0 -1 2063 -5.0652041099965572e-03</internalNodes>
          <leafValues>
            2.2165592014789581e-01 -1.2606725096702576e-01</leafValues></_>
        <_>
          <internalNodes>
            0 -1 1888 1.9520802889019251e-03</internalNodes>
          <leafValues>
            7.2178952395915985e-02 -3.6977520585060120e-01</leafValues></_>
        <_>
          <internalNodes>
            0 -1 3186 3.2912736060097814e-05</internalNodes>
          <leafValues>
            -1.7767968773841858e-01 1.5152512490749359e-01</leafValues></_>
        <_>
          <internalNodes>
            0 -1 1656 -3.7040688097476959e-02</internalNodes>
          <leafValues>
            2.4381113052368164e-01 -1.0954777896404266e-01</leafValues></_>
        <_>
          <internalNodes>
            0 -1 3418 1.4835758134722710e-02</internalNodes>
          <leafValues>
            -6.0364741832017899e-02 4.7507494688034058e-01</leafValues></_>
        <_>
          <internalNodes>
            0 -1 3786 -1.3414938002824783e-03</internalNodes>
          <leafValues>
            -3.4333592653274536e-01 9.2868961393833160e-02</leafValues></_>
        <_>
          <internalNodes>
            0 -1 2240 -1.7786623910069466e-02</internalNodes>
          <leafValues>
            3.4097585082054138e-01 -8.4050104022026062e-02</leafValues></_>
        <_>
          <internalNodes>
            0 -1 1580 1.8235690891742706e-02</internalNodes>
          <leafValues>
            -8.0736540257930756e-02 4.5347562432289124e-01</leafValues></_>
        <_>
          <internalNodes>
            0 -1 3116 -6.4498372375965118e-03</internalNodes>
          <leafValues>
            -4.0344980359077454e-01 7.4016906321048737e-02</leafValues></_>
        <_>
          <internalNodes>
            0 -1 1952 -1.6793987154960632e-01</internalNodes>
          <leafValues>
            -7.1963429450988770e-01 3.5574536770582199e-02</leafValues></_>
        <_>
          <internalNodes>
            0 -1 1743 -8.2482531666755676e-02</internalNodes>
          <leafValues>
            -5.5163019895553589e-01 4.6655405312776566e-02</leafValues></_>
        <_>
          <internalNodes>
            0 -1 1507 -3.8662445731461048e-03</internalNodes>
          <leafValues>
            -5.5274838209152222e-01 4.5365411788225174e-02</leafValues></_>
        <_>
          <internalNodes>
            0 -1 2677 -2.4752684403210878e-03</internalNodes>
          <leafValues>
            9.7423024475574493e-02 -2.4800559878349304e-01</leafValues></_>
        <_>
          <internalNodes>
            0 -1 1254 -5.9857309679500759e-05</internalNodes>
          <leafValues>
            1.5042681992053986e-01 -1.7717728018760681e-01</leafValues></_>
        <_>
          <internalNodes>
            0 -1 955 -1.0720662772655487e-01</internalNodes>
          <leafValues>
            5.0115311145782471e-01 -5.4655492305755615e-02</leafValues></_>
        <_>
          <internalNodes>
            0 -1 2289 -1.6212638467550278e-02</internalNodes>
          <leafValues>
            -5.9608870744705200e-01 4.8662826418876648e-02</leafValues></_>
        <_>
          <internalNodes>
            0 -1 2122 -4.5510651543736458e-03</internalNodes>
          <leafValues>
            2.9635262489318848e-01 -9.5341295003890991e-02</leafValues></_>
        <_>
          <internalNodes>
            0 -1 2120 3.5163520369678736e-03</internalNodes>
          <leafValues>
            -8.7762638926506042e-02 2.8369057178497314e-01</leafValues></_>
        <_>
          <internalNodes>
            0 -1 2605 -6.8841553293168545e-03</internalNodes>
          <leafValues>
            -3.8289576768875122e-01 6.9884881377220154e-02</leafValues></_>
        <_>
          <internalNodes>
            0 -1 2018 -4.6080714091658592e-03</internalNodes>
          <leafValues>
            -5.6878072023391724e-01 4.0836028754711151e-02</leafValues></_>
        <_>
          <internalNodes>
            0 -1 171 2.9913453545304947e-05</internalNodes>
          <leafValues>
            -1.6762420535087585e-01 1.5055011212825775e-01</leafValues></_>
        <_>
          <internalNodes>
            0 -1 318 -4.8290144652128220e-02</internalNodes>
          <leafValues>
            -4.9667498469352722e-01 4.9652766436338425e-02</leafValues></_>
        <_>
          <internalNodes>
            0 -1 803 -2.2646489739418030e-01</internalNodes>
          <leafValues>
            -7.8701090812683105e-01 2.8310013934969902e-02</leafValues></_>
        <_>
          <internalNodes>
            0 -1 3292 2.9031023586867377e-05</internalNodes>
          <leafValues>
            -1.9085329771041870e-01 1.2485609203577042e-01</leafValues></_>
        <_>
          <internalNodes>
            0 -1 1423 6.1467058956623077e-02</internalNodes>
          <leafValues>
            7.7344179153442383e-02 -3.3546349406242371e-01</leafValues></_>
        <_>
          <internalNodes>
            0 -1 134 -1.8545244820415974e-03</internalNodes>
          <leafValues>
            -4.1017711162567139e-01 6.3145592808723450e-02</leafValues></_>
        <_>
          <internalNodes>
            0 -1 2437 1.1245822533965111e-02</internalNodes>
          <leafValues>
            -6.8967193365097046e-02 3.9844396710395813e-01</leafValues></_>
        <_>
          <internalNodes>
            0 -1 1043 -1.7995573580265045e-02</internalNodes>
          <leafValues>
            4.1113743185997009e-01 -5.9326212853193283e-02</leafValues></_>
        <_>
          <internalNodes>
            0 -1 3558 -3.1879666494205594e-05</internalNodes>
          <leafValues>
            1.6313442587852478e-01 -1.5085253119468689e-01</leafValues></_>
        <_>
          <internalNodes>
            0 -1 3620 1.3754047453403473e-02</internalNodes>
          <leafValues>
            -6.3601948320865631e-02 3.9309784770011902e-01</leafValues></_>
        <_>
          <internalNodes>
            0 -1 3756 -1.8246649997308850e-03</internalNodes>
          <leafValues>
            -3.3417466282844543e-01 8.8096722960472107e-02</leafValues></_>
        <_>
          <internalNodes>
            0 -1 2795 3.4361426514806226e-05</internalNodes>
          <leafValues>
            -1.9935700297355652e-01 1.2897384166717529e-01</leafValues></_>
        <_>
          <internalNodes>
            0 -1 3635 -5.4342122748494148e-03</internalNodes>
          <leafValues>
            -4.7136402130126953e-01 4.9714561551809311e-02</leafValues></_>
        <_>
          <internalNodes>
            0 -1 2714 6.0217779129743576e-02</internalNodes>
          <leafValues>
            3.6848943680524826e-02 -5.8512794971466064e-01</leafValues></_>
        <_>
          <internalNodes>
            0 -1 3638 -2.6253033865941688e-05</internalNodes>
          <leafValues>
            1.4220695197582245e-01 -1.5799723565578461e-01</leafValues></_></weakClassifiers></_>
    <!-- stage 5 -->
    <_>
      <maxWeakCount>100</maxWeakCount>
      <stageThreshold>-5.4663199186325073e-01</stageThreshold>
      <weakClassifiers>
        <_>
          <internalNodes>
            0 -1 1099 8.0773541703820229e-03</internalNodes>
          <leafValues>
            4.8035398125648499e-01 9.1097670793533325e-01</leafValues></_>
        <_>
          <internalNodes>
            0 -1 3127 8.8743893429636955e-03</internalNodes>
          <leafValues>
            -9.9979460239410400e-02 6.4509969949722290e-01</leafValues></_>
        <_>
          <internalNodes>
            0 -1 2256 1.6187027096748352e-02</internalNodes>
          <leafValues>
            -1.8130706250667572e-01 5.7712787389755249e-01</leafValues></_>
        <_>
          <internalNodes>
            0 -1 429 -3.5947255790233612e-02</internalNodes>
          <leafValues>
            6.8554645776748657e-01 -1.3434411585330963e-01</leafValues></_>
        <_>
          <internalNodes>
            0 -1 2442 -3.6564932088367641e-05</internalNodes>
          <leafValues>
            1.6995461285114288e-01 -4.8201990127563477e-01</leafValues></_>
        <_>
          <internalNodes>
            0 -1 1460 3.9558748540002853e-05</internalNodes>
          <leafValues>
            -5.2539640665054321e-01 1.1884098500013351e-01</leafValues></_>
        <_>
          <internalNodes>
            0 -1 2013 -1.4105292037129402e-02</internalNodes>
          <leafValues>
            3.3921682834625244e-01 -1.9992361962795258e-01</leafValues></_>
        <_>
          <internalNodes>
            0 -1 3071 -3.4712045453488827e-03</internalNodes>
          <leafValues>
            -4.4453838467597961e-01 1.2772911787033081e-01</leafValues></_>
        <_>
          <internalNodes>
            0 -1 700 -8.6717249359935522e-05</internalNodes>
          <leafValues>
            1.7182096838951111e-01 -3.1472381949424744e-01</leafValues></_>
        <_>
          <internalNodes>
            0 -1 2604 6.6244648769497871e-03</internalNodes>
          <leafValues>
            6.1413120478391647e-02 -6.5648484230041504e-01</leafValues></_>
        <_>
          <internalNodes>
            0 -1 2567 -1.5216201543807983e-02</internalNodes>
          <leafValues>
            -6.9256985187530518e-01 6.4906731247901917e-02</leafValues></_>
        <_>
          <internalNodes>
            0 -1 3581 -5.6892208755016327e-02</internalNodes>
          <leafValues>
            6.3466048240661621e-01 -8.5229016840457916e-02</leafValues></_>
        <_>
          <internalNodes>
            0 -1 3713 -1.6600042581558228e-02</internalNodes>
          <leafValues>
            4.2450684309005737e-01 -1.2029931694269180e-01</leafValues></_>
        <_>
          <internalNodes>
            0 -1 2831 2.6695606720750220e-05</internalNodes>
          <leafValues>
            -2.7177485823631287e-01 1.6787396371364594e-01</leafValues></_>
        <_>
          <internalNodes>
            0 -1 3472 5.6935496628284454e-02</internalNodes>
          <leafValues>
            -8.4190778434276581e-02 5.2880233526229858e-01</leafValues></_>
        <_>
          <internalNodes>
            0 -1 3486 1.2921860907226801e-03</internalNodes>
          <leafValues>
            1.0960756242275238e-01 -4.1945138573646545e-01</leafValues></_>
        <_>
          <internalNodes>
            0 -1 3487 -2.2181123495101929e-03</internalNodes>
          <leafValues>
            -4.8079100251197815e-01 9.2715308070182800e-02</leafValues></_>
        <_>
          <internalNodes>
            0 -1 298 -4.4038213789463043e-02</internalNodes>
          <leafValues>
            -5.2345699071884155e-01 7.3621466755867004e-02</leafValues></_>
        <_>
          <internalNodes>
            0 -1 3112 -2.2622015327215195e-02</internalNodes>
          <leafValues>
            4.6979248523712158e-01 -8.5189975798130035e-02</leafValues></_>
        <_>
          <internalNodes>
            0 -1 1191 -3.3763544633984566e-03</internalNodes>
          <leafValues>
            -5.2619087696075439e-01 7.2409212589263916e-02</leafValues></_>
        <_>
          <internalNodes>
            0 -1 1165 -2.7649020776152611e-03</internalNodes>
          <leafValues>
            -4.6474969387054443e-01 7.6320186257362366e-02</leafValues></_>
        <_>
          <internalNodes>
            0 -1 534 1.9275327213108540e-03</internalNodes>
          <leafValues>
            1.4449839293956757e-01 -2.7116388082504272e-01</leafValues></_>
        <_>
          <internalNodes>
            0 -1 1847 2.7577972505241632e-03</internalNodes>
          <leafValues>
            -3.2421916723251343e-01 1.0594576597213745e-01</leafValues></_>
        <_>
          <internalNodes>
            0 -1 2487 -6.9740023463964462e-03</internalNodes>
          <leafValues>
            -6.0227739810943604e-01 5.4660104215145111e-02</leafValues></_>
        <_>
          <internalNodes>
            0 -1 1553 -1.3126344978809357e-01</internalNodes>
          <leafValues>
            -5.4512107372283936e-01 5.6063801050186157e-02</leafValues></_>
        <_>
          <internalNodes>
            0 -1 2256 4.0834490209817886e-03</internalNodes>
          <leafValues>
            -1.9557316601276398e-01 1.6320666670799255e-01</leafValues></_>
        <_>
          <internalNodes>
            0 -1 311 -6.1425279825925827e-02</internalNodes>
          <leafValues>
            4.2387452721595764e-01 -8.7744697928428650e-02</leafValues></_>
        <_>
          <internalNodes>
            0 -1 37 3.4313216805458069e-02</internalNodes>
          <leafValues>
            -1.9029118120670319e-01 2.7205854654312134e-01</leafValues></_>
        <_>
          <internalNodes>
            0 -1 2339 -2.3220407310873270e-03</internalNodes>
          <leafValues>
            -4.9034970998764038e-01 7.1832120418548584e-02</leafValues></_>
        <_>
          <internalNodes>
            0 -1 1920 1.6843667253851891e-02</internalNodes>
          <leafValues>
            -8.4087893366813660e-02 4.2086136341094971e-01</leafValues></_>
        <_>
          <internalNodes>
            0 -1 2209 8.2476977258920670e-03</internalNodes>
          <leafValues>
            -1.1143288016319275e-01 3.4970319271087646e-01</leafValues></_>
        <_>
          <internalNodes>
            0 -1 2722 3.1981393694877625e-02</internalNodes>
          <leafValues>
            7.4715055525302887e-02 -5.7392436265945435e-01</leafValues></_>
        <_>
          <internalNodes>
            0 -1 3756 1.4740916667506099e-03</internalNodes>
          <leafValues>
            8.4415778517723083e-02 -3.8971042633056641e-01</leafValues></_>
        <_>
          <internalNodes>
            0 -1 2018 -1.9520298810675740e-03</internalNodes>
          <leafValues>
            -3.8033905625343323e-01 8.5615903139114380e-02</leafValues></_>
        <_>
          <internalNodes>
            0 -1 1074 -2.0166922360658646e-02</internalNodes>
          <leafValues>
            2.7472475171089172e-01 -1.1459110677242279e-01</leafValues></_>
        <_>
          <internalNodes>
            0 -1 1406 8.3069112151861191e-03</internalNodes>
          <leafValues>
            -7.8283913433551788e-02 4.9170723557472229e-01</leafValues></_>
        <_>
          <internalNodes>
            0 -1 3739 1.5552602708339691e-03</internalNodes>
          <leafValues>
            1.0759778320789337e-01 -3.0366504192352295e-01</leafValues></_>
        <_>
          <internalNodes>
            0 -1 22 -6.2659814953804016e-02</internalNodes>
          <leafValues>
            7.0299226045608521e-01 -4.2733397334814072e-02</leafValues></_>
        <_>
          <internalNodes>
            0 -1 669 -1.8859289120882750e-03</internalNodes>
          <leafValues>
            -3.2042139768600464e-01 9.3088991940021515e-02</leafValues></_>
        <_>
          <internalNodes>
            0 -1 651 -8.5922600701451302e-03</internalNodes>
          <leafValues>
            1.6055607795715332e-01 -1.8183779716491699e-01</leafValues></_>
        <_>
          <internalNodes>
            0 -1 167 -8.0181464552879333e-02</internalNodes>
          <leafValues>
            -3.9782106876373291e-01 6.7906998097896576e-02</leafValues></_>
        <_>
          <internalNodes>
            0 -1 866 -2.9627723051817156e-05</internalNodes>
          <leafValues>
            1.1078955233097076e-01 -2.5228169560432434e-01</leafValues></_>
        <_>
          <internalNodes>
            0 -1 2340 6.9187575718387961e-05</internalNodes>
          <leafValues>
            -1.9532106816768646e-01 1.5010125935077667e-01</leafValues></_>
        <_>
          <internalNodes>
            0 -1 2625 -5.4128970950841904e-03</internalNodes>
          <leafValues>
            -4.4471773505210876e-01 6.1230733990669250e-02</leafValues></_>
        <_>
          <internalNodes>
            0 -1 1 1.5903359744697809e-03</internalNodes>
          <leafValues>
            8.1829309463500977e-02 -3.0929762125015259e-01</leafValues></_>
        <_>
          <internalNodes>
            0 -1 1 -1.5319681260734797e-03</internalNodes>
          <leafValues>
            -3.8177824020385742e-01 9.3040145933628082e-02</leafValues></_>
        <_>
          <internalNodes>
            0 -1 175 1.0537037625908852e-02</internalNodes>
          <leafValues>
            -6.9950915873050690e-02 4.1810908913612366e-01</leafValues></_>
        <_>
          <internalNodes>
            0 -1 1098 4.7109737060964108e-03</internalNodes>
          <leafValues>
            -1.1562164872884750e-01 2.2003442049026489e-01</leafValues></_>
        <_>
          <internalNodes>
            0 -1 1393 -1.0089688003063202e-02</internalNodes>
          <leafValues>
            -6.1032503843307495e-01 4.5084927231073380e-02</leafValues></_>
        <_>
          <internalNodes>
            0 -1 1157 -2.3796292953193188e-03</internalNodes>
          <leafValues>
            1.4724223315715790e-01 -1.7868046462535858e-01</leafValues></_>
        <_>
          <internalNodes>
            0 -1 2089 6.5301232039928436e-02</internalNodes>
          <leafValues>
            6.6220216453075409e-02 -3.9555245637893677e-01</leafValues></_>
        <_>
          <internalNodes>
            0 -1 2568 -1.0684728622436523e-02</internalNodes>
          <leafValues>
            2.9364308714866638e-01 -9.3911573290824890e-02</leafValues></_>
        <_>
          <internalNodes>
            0 -1 2626 8.4461094811558723e-03</internalNodes>
          <leafValues>
            6.3036642968654633e-02 -4.0557867288589478e-01</leafValues></_>
        <_>
          <internalNodes>
            0 -1 2574 1.1186994612216949e-02</internalNodes>
          <leafValues>
            -5.8074332773685455e-02 4.6345809102058411e-01</leafValues></_>
        <_>
          <internalNodes>
            0 -1 3652 -1.9714869558811188e-03</internalNodes>
          <leafValues>
            -3.0475437641143799e-01 8.5442163050174713e-02</leafValues></_>
        <_>
          <internalNodes>
            0 -1 3218 1.6407515853643417e-02</internalNodes>
          <leafValues>
            -9.6628285944461823e-02 2.7253982424736023e-01</leafValues></_>
        <_>
          <internalNodes>
            0 -1 3518 1.1519928229972720e-03</internalNodes>
          <leafValues>
            7.6777495443820953e-02 -3.1902560591697693e-01</leafValues></_>
        <_>
          <internalNodes>
            0 -1 1868 2.9295824468135834e-02</internalNodes>
          <leafValues>
            5.6458074599504471e-02 -4.1217073798179626e-01</leafValues></_>
        <_>
          <internalNodes>
            0 -1 1807 -1.1539225466549397e-02</internalNodes>
          <leafValues>
            2.9365223646163940e-01 -8.6661539971828461e-02</leafValues></_>
        <_>
          <internalNodes>
            0 -1 1676 3.0460028938250616e-05</internalNodes>
          <leafValues>
            -1.9647228717803955e-01 1.4216299355030060e-01</leafValues></_>
        <_>
          <internalNodes>
            0 -1 3575 -2.9931807890534401e-02</internalNodes>
          <leafValues>
            6.3886648416519165e-01 -3.8877695798873901e-02</leafValues></_>
        <_>
          <internalNodes>
            0 -1 3311 6.3442863523960114e-02</internalNodes>
          <leafValues>
            -4.4480253010988235e-02 4.4949293136596680e-01</leafValues></_>
        <_>
          <internalNodes>
            0 -1 3407 -6.9266498030629009e-05</internalNodes>
          <leafValues>
            1.6069221496582031e-01 -1.6120652854442596e-01</leafValues></_>
        <_>
          <internalNodes>
            0 -1 886 -1.0279855132102966e-01</internalNodes>
          <leafValues>
            -5.4898869991302490e-01 4.0002506226301193e-02</leafValues></_>
        <_>
          <internalNodes>
            0 -1 3794 2.1656509488821030e-03</internalNodes>
          <leafValues>
            8.2830540835857391e-02 -2.7667930722236633e-01</leafValues></_>
        <_>
          <internalNodes>
            0 -1 1070 1.1117861419916153e-01</internalNodes>
          <leafValues>
            3.0685773119330406e-02 -7.2451984882354736e-01</leafValues></_>
        <_>
          <internalNodes>
            0 -1 188 3.5589329898357391e-02</internalNodes>
          <leafValues>
            4.8676718026399612e-02 -4.2277091741561890e-01</leafValues></_>
        <_>
          <internalNodes>
            0 -1 3096 -7.8526698052883148e-03</internalNodes>
          <leafValues>
            2.7373316884040833e-01 -8.1257350742816925e-02</leafValues></_>
        <_>
          <internalNodes>
            0 -1 2911 8.3863157778978348e-03</internalNodes>
          <leafValues>
            -1.1769515275955200e-01 3.1295076012611389e-01</leafValues></_>
        <_>
          <internalNodes>
            0 -1 520 -1.7204415053129196e-03</internalNodes>
          <leafValues>
            -3.5434141755104065e-01 6.3187234103679657e-02</leafValues></_>
        <_>
          <internalNodes>
            0 -1 1064 -1.3431781902909279e-02</internalNodes>
          <leafValues>
            1.6759440302848816e-01 -1.3097064197063446e-01</leafValues></_>
        <_>
          <internalNodes>
            0 -1 2837 -4.5243687927722931e-03</internalNodes>
          <leafValues>
            1.2931722402572632e-01 -1.8307332694530487e-01</leafValues></_>
        <_>
          <internalNodes>
            0 -1 1822 1.0685756802558899e-02</internalNodes>
          <leafValues>
            -5.0575321912765503e-01 4.4524189084768295e-02</leafValues></_>
        <_>
          <internalNodes>
            0 -1 2315 -6.5873553976416588e-03</internalNodes>
          <leafValues>
            -4.1818892955780029e-01 4.8274524509906769e-02</leafValues></_>
        <_>
          <internalNodes>
            0 -1 2202 -3.3350707963109016e-03</internalNodes>
          <leafValues>
            1.8258227407932281e-01 -1.2267877161502838e-01</leafValues></_>
        <_>
          <internalNodes>
            0 -1 3783 2.3483664263039827e-03</internalNodes>
          <leafValues>
            7.1579292416572571e-02 -3.0744829773902893e-01</leafValues></_>
        <_>
          <internalNodes>
            0 -1 3783 -1.5245140530169010e-03</internalNodes>
          <leafValues>
            -2.7643734216690063e-01 7.0261269807815552e-02</leafValues></_>
        <_>
          <internalNodes>
            0 -1 3289 3.0861375853419304e-03</internalNodes>
          <leafValues>
            -9.8294019699096680e-02 2.1440359950065613e-01</leafValues></_>
        <_>
          <internalNodes>
            0 -1 2895 -1.2710623559542000e-04</internalNodes>
          <leafValues>
            8.5530549287796021e-02 -2.6861995458602905e-01</leafValues></_>
        <_>
          <internalNodes>
            0 -1 382 -3.1928546377457678e-05</internalNodes>
          <leafValues>
            1.3975146412849426e-01 -1.4259105920791626e-01</leafValues></_>
        <_>
          <internalNodes>
            0 -1 1361 -1.2402674183249474e-02</internalNodes>
          <leafValues>
            2.7320587635040283e-01 -7.4406251311302185e-02</leafValues></_>
        <_>
          <internalNodes>
            0 -1 1345 8.3563383668661118e-03</internalNodes>
          <leafValues>
            -6.8627394735813141e-02 3.1032517552375793e-01</leafValues></_>
        <_>
          <internalNodes>
            0 -1 1923 -8.0205515027046204e-02</internalNodes>
          <leafValues>
            -5.5698972940444946e-01 3.9825569838285446e-02</leafValues></_>
        <_>
          <internalNodes>
            0 -1 1580 1.0026836767792702e-02</internalNodes>
          <leafValues>
            -8.7443493306636810e-02 2.3994964361190796e-01</leafValues></_>
        <_>
          <internalNodes>
            0 -1 1549 6.2593311071395874e-02</internalNodes>
          <leafValues>
            3.8270056247711182e-02 -6.6230243444442749e-01</leafValues></_>
        <_>
          <internalNodes>
            0 -1 3015 -7.4887918308377266e-03</internalNodes>
          <leafValues>
            2.5288641452789307e-01 -9.5835998654365540e-02</leafValues></_>
        <_>
          <internalNodes>
            0 -1 872 2.7045861352235079e-03</internalNodes>
          <leafValues>
            6.6621109843254089e-02 -3.3283451199531555e-01</leafValues></_>
        <_>
          <internalNodes>
            0 -1 650 -1.5852919220924377e-01</internalNodes>
          <leafValues>
            5.2869266271591187e-01 -4.1937254369258881e-02</leafValues></_>
        <_>
          <internalNodes>
            0 -1 1643 3.4091975976480171e-05</internalNodes>
          <leafValues>
            -1.5064944326877594e-01 1.4546798169612885e-01</leafValues></_>
        <_>
          <internalNodes>
            0 -1 1918 -3.2301425933837891e-02</internalNodes>
          <leafValues>
            -5.1745700836181641e-01 3.8961589336395264e-02</leafValues></_>
        <_>
          <internalNodes>
            0 -1 2998 -3.1536917958874255e-05</internalNodes>
          <leafValues>
            1.4162200689315796e-01 -1.4965708553791046e-01</leafValues></_>
        <_>
          <internalNodes>
            0 -1 1490 3.4110104024875909e-05</internalNodes>
          <leafValues>
            -2.3542501032352448e-01 9.0945720672607422e-02</leafValues></_>
        <_>
          <internalNodes>
            0 -1 95 6.9688344001770020e-01</internalNodes>
          <leafValues>
            2.8009958565235138e-02 -7.3546606302261353e-01</leafValues></_>
        <_>
          <internalNodes>
            0 -1 1305 -5.3387666121125221e-03</internalNodes>
          <leafValues>
            -3.4313958883285522e-01 5.6686285883188248e-02</leafValues></_>
        <_>
          <internalNodes>
            0 -1 1517 -1.6310483217239380e-02</internalNodes>
          <leafValues>
            2.5296738743782043e-01 -8.6407519876956940e-02</leafValues></_>
        <_>
          <internalNodes>
            0 -1 2136 5.0195947289466858e-02</internalNodes>
          <leafValues>
            6.6218227148056030e-02 -3.6424252390861511e-01</leafValues></_>
        <_>
          <internalNodes>
            0 -1 1420 -3.0150951817631721e-02</internalNodes>
          <leafValues>
            -4.0714773535728455e-01 5.7024244219064713e-02</leafValues></_>
        <_>
          <internalNodes>
            0 -1 2433 -5.7858210057020187e-03</internalNodes>
          <leafValues>
            3.0868187546730042e-01 -6.9336459040641785e-02</leafValues></_>
        <_>
          <internalNodes>
            0 -1 1674 -1.0394239798188210e-02</internalNodes>
          <leafValues>
            -4.8468801379203796e-01 5.0174120813608170e-02</leafValues></_>
        <_>
          <internalNodes>
            0 -1 1669 2.9693721444346011e-05</internalNodes>
          <leafValues>
            -1.5754525363445282e-01 1.3258931040763855e-01</leafValues></_></weakClassifiers></_>
    <!-- stage 6 -->
    <_>
      <maxWeakCount>124</maxWeakCount>
      <stageThreshold>-5.3129816055297852e-01</stageThreshold>
      <weakClassifiers>
        <_>
          <internalNodes>
            0 -1 3102 5.0103967078030109e-03</internalNodes>
          <leafValues>
            4.1438812017440796e-01 9.0405374765396118e-01</leafValues></_>
        <_>
          <internalNodes>
            0 -1 1733 2.4349585175514221e-02</internalNodes>
          <leafValues>
            1.4529228210449219e-01 7.6948738098144531e-01</leafValues></_>
        <_>
          <internalNodes>
            0 -1 1968 -1.1259059421718121e-02</internalNodes>
          <leafValues>
            4.6153971552848816e-01 -2.5297123193740845e-01</leafValues></_>
        <_>
          <internalNodes>
            0 -1 435 1.7759397625923157e-02</internalNodes>
          <leafValues>
            -1.8157048523426056e-01 5.1019191741943359e-01</leafValues></_>
        <_>
          <internalNodes>
            0 -1 1591 -9.3628317117691040e-03</internalNodes>
          <leafValues>
            1.5604007244110107e-01 -3.4168884158134460e-01</leafValues></_>
        <_>
          <internalNodes>
            0 -1 3429 -4.5070253312587738e-02</internalNodes>
          <leafValues>
            3.6670637130737305e-01 -1.6605490446090698e-01</leafValues></_>
        <_>
          <internalNodes>
            0 -1 3500 4.2812407016754150e-02</internalNodes>
          <leafValues>
            -1.0494713485240936e-01 4.8704674839973450e-01</leafValues></_>
        <_>
          <internalNodes>
            0 -1 682 -6.5897880122065544e-03</internalNodes>
          <leafValues>
            2.1062771975994110e-01 -2.5137645006179810e-01</leafValues></_>
        <_>
          <internalNodes>
            0 -1 1863 2.0185738801956177e-02</internalNodes>
          <leafValues>
            8.0792449414730072e-02 -5.5356711149215698e-01</leafValues></_>
        <_>
          <internalNodes>
            0 -1 2146 2.8003391344100237e-04</internalNodes>
          <leafValues>
            -6.4119428396224976e-01 7.0488259196281433e-02</leafValues></_>
        <_>
          <internalNodes>
            0 -1 1373 8.1273596733808517e-03</internalNodes>
          <leafValues>
            -1.4162936806678772e-01 3.5470315814018250e-01</leafValues></_>
        <_>
          <internalNodes>
            0 -1 3489 -5.5990611144807190e-05</internalNodes>
          <leafValues>
            1.4086081087589264e-01 -3.0407017469406128e-01</leafValues></_>
        <_>
          <internalNodes>
            0 -1 3506 -2.7995409909635782e-03</internalNodes>
          <leafValues>
            -4.5346277952194214e-01 8.9737407863140106e-02</leafValues></_>
        <_>
          <internalNodes>
            0 -1 199 1.2244182638823986e-02</internalNodes>
          <leafValues>
            -4.9614208936691284e-01 6.7285344004631042e-02</leafValues></_>
        <_>
          <internalNodes>
            0 -1 55 -1.6970025002956390e-01</internalNodes>
          <leafValues>
            4.6748590469360352e-01 -9.0255439281463623e-02</leafValues></_>
        <_>
          <internalNodes>
            0 -1 1556 -2.9031023586867377e-05</internalNodes>
          <leafValues>
            1.6202889382839203e-01 -2.3360513150691986e-01</leafValues></_>
        <_>
          <internalNodes>
            0 -1 1089 6.9974201323930174e-05</internalNodes>
          <leafValues>
            -2.4700775742530823e-01 1.3838197290897369e-01</leafValues></_>
        <_>
          <internalNodes>
            0 -1 832 -1.6190096735954285e-02</internalNodes>
          <leafValues>
            -5.3470605611801147e-01 6.0538064688444138e-02</leafValues></_>
        <_>
          <internalNodes>
            0 -1 3686 -2.0020309835672379e-02</internalNodes>
          <leafValues>
            4.4007983803749084e-01 -7.5498491525650024e-02</leafValues></_>
        <_>
          <internalNodes>
            0 -1 972 -1.2743629049509764e-03</internalNodes>
          <leafValues>
            -2.8375506401062012e-01 1.0859078168869019e-01</leafValues></_>
        <_>
          <internalNodes>
            0 -1 3109 -7.0048063062131405e-03</internalNodes>
          <leafValues>
            2.2566968202590942e-01 -1.3403704762458801e-01</leafValues></_>
        <_>
          <internalNodes>
            0 -1 3788 -3.4687272273004055e-03</internalNodes>
          <leafValues>
            -3.6406221985816956e-01 8.4597714245319366e-02</leafValues></_>
        <_>
          <internalNodes>
            0 -1 987 -2.0467380527406931e-03</internalNodes>
          <leafValues>
            -3.5271993279457092e-01 8.0816730856895447e-02</leafValues></_>
        <_>
          <internalNodes>
            0 -1 1402 2.6129116304218769e-03</internalNodes>
          <leafValues>
            -1.0381019860506058e-01 2.8030675649642944e-01</leafValues></_>
        <_>
          <internalNodes>
            0 -1 2007 2.6695606720750220e-05</internalNodes>
          <leafValues>
            -1.7333190143108368e-01 1.6418883204460144e-01</leafValues></_>
        <_>
          <internalNodes>
            0 -1 2313 3.9381077513098717e-03</internalNodes>
          <leafValues>
            5.7895686477422714e-02 -4.6708756685256958e-01</leafValues></_>
        <_>
          <internalNodes>
            0 -1 2534 -1.4008000493049622e-02</internalNodes>
          <leafValues>
            3.2574826478958130e-01 -9.8239965736865997e-02</leafValues></_>
        <_>
          <internalNodes>
            0 -1 1556 -3.5383147187530994e-03</internalNodes>
          <leafValues>
            -4.8205828666687012e-01 6.0263253748416901e-02</leafValues></_>
        <_>
          <internalNodes>
            0 -1 3220 -2.6258570142090321e-03</internalNodes>
          <leafValues>
            1.1885825544595718e-01 -2.2487582266330719e-01</leafValues></_>
        <_>
          <internalNodes>
            0 -1 580 -1.6040700674057007e-01</internalNodes>
          <leafValues>
            2.4725504219532013e-01 -1.1645837128162384e-01</leafValues></_>
        <_>
          <internalNodes>
            0 -1 267 9.2976234853267670e-02</internalNodes>
          <leafValues>
            -9.0512841939926147e-02 3.4920009970664978e-01</leafValues></_>
        <_>
          <internalNodes>
            0 -1 2042 5.9796199202537537e-03</internalNodes>
          <leafValues>
            -1.5242694318294525e-01 1.8412362039089203e-01</leafValues></_>
        <_>
          <internalNodes>
            0 -1 2339 2.3205140605568886e-03</internalNodes>
          <leafValues>
            5.7727959007024765e-02 -4.3945187330245972e-01</leafValues></_>
        <_>
          <internalNodes>
            0 -1 3596 -3.9484936743974686e-02</internalNodes>
          <leafValues>
            4.7379255294799805e-01 -5.4261360317468643e-02</leafValues></_>
        <_>
          <internalNodes>
            0 -1 3659 1.2554076965898275e-03</internalNodes>
          <leafValues>
            7.8961871564388275e-02 -3.5280168056488037e-01</leafValues></_>
        <_>
          <internalNodes>
            0 -1 3659 -1.5899958088994026e-03</internalNodes>
          <leafValues>
            -3.0070096254348755e-01 1.0055869072675705e-01</leafValues></_>
        <_>
          <internalNodes>
            0 -1 3607 1.2215934693813324e-02</internalNodes>
          <leafValues>
            -8.3373181521892548e-02 3.7817463278770447e-01</leafValues></_>
        <_>
          <internalNodes>
            0 -1 2219 2.2338775452226400e-03</internalNodes>
          <leafValues>
            -9.8728120326995850e-02 2.4913768470287323e-01</leafValues></_>
        <_>
          <internalNodes>
            0 -1 2524 2.4847174063324928e-03</internalNodes>
          <leafValues>
            -9.6751242876052856e-02 2.7970227599143982e-01</leafValues></_>
        <_>
          <internalNodes>
            0 -1 2771 2.6695606720750220e-05</internalNodes>
          <leafValues>
            -1.1258731782436371e-01 2.3287861049175262e-01</leafValues></_>
        <_>
          <internalNodes>
            0 -1 1842 3.5279797884868458e-05</internalNodes>
          <leafValues>
            -4.1390573978424072e-01 6.5560966730117798e-02</leafValues></_>
        <_>
          <internalNodes>
            0 -1 2339 -1.9567050039768219e-03</internalNodes>
          <leafValues>
            -4.1163870692253113e-01 5.6928139179944992e-02</leafValues></_>
        <_>
          <internalNodes>
            0 -1 1164 -6.8529829150065780e-05</internalNodes>
          <leafValues>
            1.4077922701835632e-01 -1.6614374518394470e-01</leafValues></_>
        <_>
          <internalNodes>
            0 -1 1801 7.4763880111277103e-03</internalNodes>
          <leafValues>
            -7.3969021439552307e-02 3.1848600506782532e-01</leafValues></_>
        <_>
          <internalNodes>
            0 -1 2117 -1.7345781624317169e-01</internalNodes>
          <leafValues>
            -5.9329104423522949e-01 4.1751213371753693e-02</leafValues></_>
        <_>
          <internalNodes>
            0 -1 1795 6.7444503307342529e-02</internalNodes>
          <leafValues>
            5.7676173746585846e-02 -3.9205214381217957e-01</leafValues></_>
        <_>
          <internalNodes>
            0 -1 1095 3.6844864953309298e-03</internalNodes>
          <leafValues>
            -1.1777296662330627e-01 2.0525452494621277e-01</leafValues></_>
        <_>
          <internalNodes>
            0 -1 3 1.9575322512537241e-03</internalNodes>
          <leafValues>
            8.1342488527297974e-02 -2.9647859930992126e-01</leafValues></_>
        <_>
          <internalNodes>
            0 -1 2210 6.7046382464468479e-03</internalNodes>
          <leafValues>
            -1.0223399102687836e-01 2.4879510700702667e-01</leafValues></_>
        <_>
          <internalNodes>
            0 -1 2628 -1.1440158821642399e-02</internalNodes>
          <leafValues>
            -4.8210555315017700e-01 5.0304181873798370e-02</leafValues></_>
        <_>
          <internalNodes>
            0 -1 147 -2.9163697734475136e-02</internalNodes>
          <leafValues>
            3.7508040666580200e-01 -6.6558107733726501e-02</leafValues></_>
        <_>
          <internalNodes>
            0 -1 18 3.6262419074773788e-02</internalNodes>
          <leafValues>
            -4.5372918248176575e-02 5.5412578582763672e-01</leafValues></_>
        <_>
          <internalNodes>
            0 -1 2523 7.0478796260431409e-05</internalNodes>
          <leafValues>
            -9.7037412226200104e-02 2.2747673094272614e-01</leafValues></_>
        <_>
          <internalNodes>
            0 -1 2187 -8.3689838647842407e-03</internalNodes>
          <leafValues>
            -5.1223731040954590e-01 5.0177823752164841e-02</leafValues></_>
        <_>
          <internalNodes>
            0 -1 3629 -5.7611912779975682e-05</internalNodes>
          <leafValues>
            1.6308902204036713e-01 -1.3819555938243866e-01</leafValues></_>
        <_>
          <internalNodes>
            0 -1 2870 -1.4519753865897655e-02</internalNodes>
          <leafValues>
            -4.9423193931579590e-01 4.7739561647176743e-02</leafValues></_>
        <_>
          <internalNodes>
            0 -1 3112 1.2439787387847900e-02</internalNodes>
          <leafValues>
            -6.3083328306674957e-02 3.9479282498359680e-01</leafValues></_>
        <_>
          <internalNodes>
            0 -1 2971 1.3468648830894381e-04</internalNodes>
          <leafValues>
            -1.4002607762813568e-01 1.4844264090061188e-01</leafValues></_>
        <_>
          <internalNodes>
            0 -1 1836 2.9831562191247940e-02</internalNodes>
          <leafValues>
            -8.7877571582794189e-02 2.7402707934379578e-01</leafValues></_>
        <_>
          <internalNodes>
            0 -1 3797 1.8687600968405604e-03</internalNodes>
          <leafValues>
            9.6336811780929565e-02 -2.3583714663982391e-01</leafValues></_>
        <_>
          <internalNodes>
            0 -1 2964 1.8771130591630936e-02</internalNodes>
          <leafValues>
            4.1842430830001831e-02 -5.6042140722274780e-01</leafValues></_>
        <_>
          <internalNodes>
            0 -1 2207 -6.7267768085002899e-02</internalNodes>
          <leafValues>
            -4.8860123753547668e-01 4.2067959904670715e-02</leafValues></_>
        <_>
          <internalNodes>
            0 -1 2308 3.4869728551711887e-05</internalNodes>
          <leafValues>
            -2.2208556532859802e-01 1.3304410874843597e-01</leafValues></_>
        <_>
          <internalNodes>
            0 -1 2261 -1.4151273295283318e-02</internalNodes>
          <leafValues>
            3.6361581087112427e-01 -5.8637715876102448e-02</leafValues></_>
        <_>
          <internalNodes>
            0 -1 2553 3.5063084214925766e-03</internalNodes>
          <leafValues>
            -1.6928410530090332e-01 1.6206611692905426e-01</leafValues></_>
        <_>
          <internalNodes>
            0 -1 1597 -2.6032142341136932e-03</internalNodes>
          <leafValues>
            -3.3165234327316284e-01 6.9763824343681335e-02</leafValues></_>
        <_>
          <internalNodes>
            0 -1 3309 1.0426418884890154e-04</internalNodes>
          <leafValues>
            -2.0970775187015533e-01 9.9552102386951447e-02</leafValues></_>
        <_>
          <internalNodes>
            0 -1 2772 2.7113752439618111e-03</internalNodes>
          <leafValues>
            -7.9957164824008942e-02 2.5679478049278259e-01</leafValues></_>
        <_>
          <internalNodes>
            0 -1 3631 -2.5337843690067530e-03</internalNodes>
          <leafValues>
            -3.6792621016502380e-01 6.2790341675281525e-02</leafValues></_>
        <_>
          <internalNodes>
            0 -1 3639 -3.0165733769536018e-03</internalNodes>
          <leafValues>
            -3.7358176708221436e-01 5.8508884161710739e-02</leafValues></_>
        <_>
          <internalNodes>
            0 -1 596 -3.2097809016704559e-02</internalNodes>
          <leafValues>
            -3.5086098313331604e-01 5.8949865400791168e-02</leafValues></_>
        <_>
          <internalNodes>
            0 -1 360 -4.3010655790567398e-02</internalNodes>
          <leafValues>
            2.5372335314750671e-01 -8.5232496261596680e-02</leafValues></_>
        <_>
          <internalNodes>
            0 -1 626 -1.8622320145368576e-02</internalNodes>
          <leafValues>
            1.4445754885673523e-01 -1.6323080658912659e-01</leafValues></_>
        <_>
          <internalNodes>
            0 -1 3099 7.5824451632797718e-03</internalNodes>
          <leafValues>
            -1.4296184480190277e-01 1.5095403790473938e-01</leafValues></_>
        <_>
          <internalNodes>
            0 -1 3427 -5.3877994418144226e-02</internalNodes>
          <leafValues>
            3.4420233964920044e-01 -6.5996147692203522e-02</leafValues></_>
        <_>
          <internalNodes>
            0 -1 919 -1.6512917354702950e-03</internalNodes>
          <leafValues>
            -2.5720295310020447e-01 8.5682108998298645e-02</leafValues></_>
        <_>
          <internalNodes>
            0 -1 800 -1.1115107685327530e-01</internalNodes>
          <leafValues>
            -5.7436299324035645e-01 3.7281971424818039e-02</leafValues></_>
        <_>
          <internalNodes>
            0 -1 1049 -6.0154255479574203e-03</internalNodes>
          <leafValues>
            9.8121747374534607e-02 -2.1101208031177521e-01</leafValues></_>
        <_>
          <internalNodes>
            0 -1 45 -6.0895591974258423e-02</internalNodes>
          <leafValues>
            -4.6349695324897766e-01 4.3791491538286209e-02</leafValues></_>
        <_>
          <internalNodes>
            0 -1 3759 1.7164670862257481e-03</internalNodes>
          <leafValues>
            7.2692848742008209e-02 -2.7245205640792847e-01</leafValues></_>
        <_>
          <internalNodes>
            0 -1 233 -4.9795880913734436e-03</internalNodes>
          <leafValues>
            -3.7249600887298584e-01 5.4012041538953781e-02</leafValues></_>
        <_>
          <internalNodes>
            0 -1 1634 2.1825751755386591e-03</internalNodes>
          <leafValues>
            -1.3889327645301819e-01 1.3820938766002655e-01</leafValues></_>
        <_>
          <internalNodes>
            0 -1 2568 7.8096780925989151e-03</internalNodes>
          <leafValues>
            -5.6318491697311401e-02 4.0076944231987000e-01</leafValues></_>
        <_>
          <internalNodes>
            0 -1 2813 9.3953087925910950e-03</internalNodes>
          <leafValues>
            4.3917082250118256e-02 -5.0661057233810425e-01</leafValues></_>
        <_>
          <internalNodes>
            0 -1 2129 -1.5754997730255127e-02</internalNodes>
          <leafValues>
            2.0901787281036377e-01 -8.6865052580833435e-02</leafValues></_>
        <_>
          <internalNodes>
            0 -1 846 1.2631091522052884e-03</internalNodes>
          <leafValues>
            6.7392893135547638e-02 -2.9427668452262878e-01</leafValues></_>
        <_>
          <internalNodes>
            0 -1 846 -2.7153333649039268e-03</internalNodes>
          <leafValues>
            -3.4931588172912598e-01 4.9103934317827225e-02</leafValues></_>
        <_>
          <internalNodes>
            0 -1 1754 -2.7616652660071850e-03</internalNodes>
          <leafValues>
            2.7445963025093079e-01 -6.8125657737255096e-02</leafValues></_>
        <_>
          <internalNodes>
            0 -1 2519 4.8056077212095261e-02</internalNodes>
          <leafValues>
            3.6377936601638794e-02 -5.2529901266098022e-01</leafValues></_>
        <_>
          <internalNodes>
            0 -1 2574 -6.7099467851221561e-03</internalNodes>
          <leafValues>
            1.5737187862396240e-01 -1.2869426608085632e-01</leafValues></_>
        <_>
          <internalNodes>
            0 -1 2817 -1.7501264810562134e-02</internalNodes>
          <leafValues>
            -5.6203979253768921e-01 3.1106572598218918e-02</leafValues></_>
        <_>
          <internalNodes>
            0 -1 27 2.8492830693721771e-02</internalNodes>
          <leafValues>
            3.7267051637172699e-02 -4.6477138996124268e-01</leafValues></_>
        <_>
          <internalNodes>
            0 -1 2245 -1.9233146682381630e-02</internalNodes>
          <leafValues>
            -7.2131997346878052e-01 2.1997490897774696e-02</leafValues></_>
        <_>
          <internalNodes>
            0 -1 2690 -3.4638131037354469e-03</internalNodes>
          <leafValues>
            2.0678457617759705e-01 -9.1114975512027740e-02</leafValues></_>
        <_>
          <internalNodes>
            0 -1 1683 -3.8276188075542450e-02</internalNodes>
          <leafValues>
            -6.7446357011795044e-01 2.6645762845873833e-02</leafValues></_>
        <_>
          <internalNodes>
            0 -1 524 -3.3477917313575745e-02</internalNodes>
          <leafValues>
            4.3851274251937866e-01 -4.3564464896917343e-02</leafValues></_>
        <_>
          <internalNodes>
            0 -1 2466 8.0043915659189224e-05</internalNodes>
          <leafValues>
            -2.9901191592216492e-01 6.3265681266784668e-02</leafValues></_>
        <_>
          <internalNodes>
            0 -1 2140 8.6233690381050110e-02</internalNodes>
          <leafValues>
            2.3591568693518639e-02 -7.7922290563583374e-01</leafValues></_>
        <_>
          <internalNodes>
            0 -1 3085 6.5478542819619179e-03</internalNodes>
          <leafValues>
            -9.0471953153610229e-02 2.1979102492332458e-01</leafValues></_>
        <_>
          <internalNodes>
            0 -1 2657 -6.4063975587487221e-03</internalNodes>
          <leafValues>
            2.0372121036052704e-01 -9.5980472862720490e-02</leafValues></_>
        <_>
          <internalNodes>
            0 -1 11 2.3437559604644775e-02</internalNodes>
          <leafValues>
            -3.7935242056846619e-02 4.6921864151954651e-01</leafValues></_>
        <_>
          <internalNodes>
            0 -1 922 2.1213388536125422e-03</internalNodes>
          <leafValues>
            6.5714053809642792e-02 -2.7034664154052734e-01</leafValues></_>
        <_>
          <internalNodes>
            0 -1 810 2.4687025696039200e-02</internalNodes>
          <leafValues>
            -4.7537177801132202e-02 5.2197420597076416e-01</leafValues></_>
        <_>
          <internalNodes>
            0 -1 1477 3.2889056456042454e-05</internalNodes>
          <leafValues>
            -1.6931425034999847e-01 1.0477877408266068e-01</leafValues></_>
        <_>
          <internalNodes>
            0 -1 82 -2.0762130618095398e-01</internalNodes>
          <leafValues>
            -5.5369096994400024e-01 2.8860332444310188e-02</leafValues></_>
        <_>
          <internalNodes>
            0 -1 3765 -2.8130621649324894e-03</internalNodes>
          <leafValues>
            -1.9554658234119415e-01 8.5619807243347168e-02</leafValues></_>
        <_>
          <internalNodes>
            0 -1 3505 -5.8157133025815710e-05</internalNodes>
          <leafValues>
            1.2494222819805145e-01 -1.4232257008552551e-01</leafValues></_>
        <_>
          <internalNodes>
            0 -1 130 8.0114364624023438e-02</internalNodes>
          <leafValues>
            3.2367777079343796e-02 -5.1278620958328247e-01</leafValues></_>
        <_>
          <internalNodes>
            0 -1 1021 9.9337752908468246e-03</internalNodes>
          <leafValues>
            -7.3572941124439240e-02 2.5490370392799377e-01</leafValues></_>
        <_>
          <internalNodes>
            0 -1 2105 -3.9785750210285187e-02</internalNodes>
          <leafValues>
            -6.4233344793319702e-01 2.7613038197159767e-02</leafValues></_>
        <_>
          <internalNodes>
            0 -1 2566 -1.3928763568401337e-02</internalNodes>
          <leafValues>
            -4.5427608489990234e-01 3.4685928374528885e-02</leafValues></_>
        <_>
          <internalNodes>
            0 -1 1027 -7.5041037052869797e-03</internalNodes>
          <leafValues>
            2.0797806978225708e-01 -8.3284273743629456e-02</leafValues></_>
        <_>
          <internalNodes>
            0 -1 933 -6.8307563196867704e-05</internalNodes>
          <leafValues>
            1.1477372795343399e-01 -1.4771124720573425e-01</leafValues></_>
        <_>
          <internalNodes>
            0 -1 2848 2.6253033865941688e-05</internalNodes>
          <leafValues>
            -1.1630108952522278e-01 1.4240314066410065e-01</leafValues></_>
        <_>
          <internalNodes>
            0 -1 2240 1.3623503968119621e-02</internalNodes>
          <leafValues>
            -5.6030385196208954e-02 3.0872419476509094e-01</leafValues></_>
        <_>
          <internalNodes>
            0 -1 1886 3.3522263169288635e-02</internalNodes>
          <leafValues>
            4.3257161974906921e-02 -4.4790711998939514e-01</leafValues></_>
        <_>
          <internalNodes>
            0 -1 3773 -7.2127520979847759e-05</internalNodes>
          <leafValues>
            1.0771226882934570e-01 -1.4560858905315399e-01</leafValues></_>
        <_>
          <internalNodes>
            0 -1 2331 3.2135054469108582e-02</internalNodes>
          <leafValues>
            -2.9325621202588081e-02 5.1350176334381104e-01</leafValues></_>
        <_>
          <internalNodes>
            0 -1 3216 2.6934971101582050e-03</internalNodes>
          <leafValues>
            8.0115467309951782e-02 -2.1208739280700684e-01</leafValues></_>
        <_>
          <internalNodes>
            0 -1 3118 -1.8839809345081449e-03</internalNodes>
          <leafValues>
            1.9370065629482269e-01 -8.2938045263290405e-02</leafValues></_>
        <_>
          <internalNodes>
            0 -1 3301 1.1337204341543838e-04</internalNodes>
          <leafValues>
            -1.3753925263881683e-01 1.4069974422454834e-01</leafValues></_>
        <_>
          <internalNodes>
            0 -1 3260 -5.8048285543918610e-02</internalNodes>
          <leafValues>
            -4.7010609507560730e-01 3.8642246276140213e-02</leafValues></_>
        <_>
          <internalNodes>
            0 -1 3270 -1.2440467253327370e-02</internalNodes>
          <leafValues>
            5.2291679382324219e-01 -3.5928569734096527e-02</leafValues></_>
        <_>
          <internalNodes>
            0 -1 3279 3.1733641662867740e-05</internalNodes>
          <leafValues>
            -1.4895886182785034e-01 1.2013494223356247e-01</leafValues></_></weakClassifiers></_>
    <!-- stage 7 -->
    <_>
      <maxWeakCount>135</maxWeakCount>
      <stageThreshold>-4.6928742527961731e-01</stageThreshold>
      <weakClassifiers>
        <_>
          <internalNodes>
            0 -1 2710 7.1790004149079323e-03</internalNodes>
          <leafValues>
            7.2061234712600708e-01 9.3664264678955078e-01</leafValues></_>
        <_>
          <internalNodes>
            0 -1 1452 -1.1110920459032059e-02</internalNodes>
          <leafValues>
            7.2145015001296997e-01 1.4649131894111633e-01</leafValues></_>
        <_>
          <internalNodes>
            0 -1 442 2.5868223980069160e-02</internalNodes>
          <leafValues>
            -1.3784761726856232e-01 5.4446804523468018e-01</leafValues></_>
        <_>
          <internalNodes>
            0 -1 2278 -9.7870267927646637e-03</internalNodes>
          <leafValues>
            2.7319335937500000e-01 -3.0710515379905701e-01</leafValues></_>
        <_>
          <internalNodes>
            0 -1 2882 1.8771752715110779e-02</internalNodes>
          <leafValues>
            -2.3620884120464325e-01 2.7378758788108826e-01</leafValues></_>
        <_>
          <internalNodes>
            0 -1 3273 6.1191925778985023e-03</internalNodes>
          <leafValues>
            -4.5884624123573303e-01 8.4355115890502930e-02</leafValues></_>
        <_>
          <internalNodes>
            0 -1 2454 3.9223777130246162e-03</internalNodes>
          <leafValues>
            1.1176011711359024e-01 -4.5691651105880737e-01</leafValues></_>
        <_>
          <internalNodes>
            0 -1 2746 2.3428875952959061e-02</internalNodes>
          <leafValues>
            9.0446956455707550e-02 -5.5115509033203125e-01</leafValues></_>
        <_>
          <internalNodes>
            0 -1 2607 3.2001226209104061e-03</internalNodes>
          <leafValues>
            -2.4986235797405243e-01 1.9044443964958191e-01</leafValues></_>
        <_>
          <internalNodes>
            0 -1 611 -1.6943958401679993e-01</internalNodes>
          <leafValues>
            3.6073985695838928e-01 -1.3347601890563965e-01</leafValues></_>
        <_>
          <internalNodes>
            0 -1 1195 -1.3439982198178768e-02</internalNodes>
          <leafValues>
            2.0475323498249054e-01 -2.6309606432914734e-01</leafValues></_>
        <_>
          <internalNodes>
            0 -1 2187 -5.3613428026437759e-03</internalNodes>
          <leafValues>
            -4.8472908139228821e-01 8.4054224193096161e-02</leafValues></_>
        <_>
          <internalNodes>
            0 -1 3185 -3.9114043116569519e-02</internalNodes>
          <leafValues>
            -5.9004908800125122e-01 6.6955626010894775e-02</leafValues></_>
        <_>
          <internalNodes>
            0 -1 3441 -4.1396200656890869e-02</internalNodes>
          <leafValues>
            2.7733644843101501e-01 -1.4286358654499054e-01</leafValues></_>
        <_>
          <internalNodes>
            0 -1 1788 -1.5079870820045471e-02</internalNodes>
          <leafValues>
            -5.0963795185089111e-01 7.1433015167713165e-02</leafValues></_>
        <_>
          <internalNodes>
            0 -1 2209 5.2940854802727699e-03</internalNodes>
          <leafValues>
            -1.5514753758907318e-01 2.6898154616355896e-01</leafValues></_>
        <_>
          <internalNodes>
            0 -1 1768 -3.9274670183658600e-02</internalNodes>
          <leafValues>
            -4.4792625308036804e-01 8.3880856633186340e-02</leafValues></_>
        <_>
          <internalNodes>
            0 -1 2623 -2.0040480885654688e-03</internalNodes>
          <leafValues>
            -5.1986926794052124e-01 5.9781316667795181e-02</leafValues></_>
        <_>
          <internalNodes>
            0 -1 1191 -6.5010099206119776e-05</internalNodes>
          <leafValues>
            1.3729535043239594e-01 -2.2196611762046814e-01</leafValues></_>
        <_>
          <internalNodes>
            0 -1 294 -5.7716175913810730e-02</internalNodes>
          <leafValues>
            3.1846415996551514e-01 -1.0623739659786224e-01</leafValues></_>
        <_>
          <internalNodes>
            0 -1 35 3.5476304590702057e-02</internalNodes>
          <leafValues>
            -1.4663881063461304e-01 2.7374055981636047e-01</leafValues></_>
        <_>
          <internalNodes>
            0 -1 3228 -3.1231389584718272e-05</internalNodes>
          <leafValues>
            1.2647894024848938e-01 -2.2775888442993164e-01</leafValues></_>
        <_>
          <internalNodes>
            0 -1 1165 2.4753238540142775e-03</internalNodes>
          <leafValues>
            8.1959880888462067e-02 -3.5311001539230347e-01</leafValues></_>
        <_>
          <internalNodes>
            0 -1 1471 1.5963563695549965e-02</internalNodes>
          <leafValues>
            -3.9670866727828979e-01 6.8527102470397949e-02</leafValues></_>
        <_>
          <internalNodes>
            0 -1 779 1.1671897023916245e-01</internalNodes>
          <leafValues>
            5.9414889663457870e-02 -4.6532139182090759e-01</leafValues></_>
        <_>
          <internalNodes>
            0 -1 899 2.4407349992543459e-03</internalNodes>
          <leafValues>
            6.7715406417846680e-02 -3.8267365097999573e-01</leafValues></_>
        <_>
          <internalNodes>
            0 -1 2699 -1.4098612591624260e-03</internalNodes>
          <leafValues>
            1.9809991121292114e-01 -1.4035746455192566e-01</leafValues></_>
        <_>
          <internalNodes>
            0 -1 2700 3.3287475816905499e-03</internalNodes>
          <leafValues>
            -9.7546800971031189e-02 3.0190575122833252e-01</leafValues></_>
        <_>
          <internalNodes>
            0 -1 3789 -1.9115657778456807e-03</internalNodes>
          <leafValues>
            -3.6324432492256165e-01 7.9102173447608948e-02</leafValues></_>
        <_>
          <internalNodes>
            0 -1 1482 -1.8419308587908745e-02</internalNodes>
          <leafValues>
            -7.1224588155746460e-01 3.5613801330327988e-02</leafValues></_>
        <_>
          <internalNodes>
            0 -1 3506 1.1632367968559265e-03</internalNodes>
          <leafValues>
            5.7020448148250580e-02 -4.2814406752586365e-01</leafValues></_>
        <_>
          <internalNodes>
            0 -1 2586 3.5261204175185412e-05</internalNodes>
          <leafValues>
            -2.3876637220382690e-01 1.1437604576349258e-01</leafValues></_>
        <_>
          <internalNodes>
            0 -1 3684 1.9244918599724770e-02</internalNodes>
          <leafValues>
            -5.7215880602598190e-02 4.7716283798217773e-01</leafValues></_>
        <_>
          <internalNodes>
            0 -1 2543 1.3349177315831184e-02</internalNodes>
          <leafValues>
            4.7917988151311874e-02 -5.5669587850570679e-01</leafValues></_>
        <_>
          <internalNodes>
            0 -1 2341 -3.0431691557168961e-03</internalNodes>
          <leafValues>
            -4.4932973384857178e-01 4.9214657396078110e-02</leafValues></_>
        <_>
          <internalNodes>
            0 -1 224 2.5720387697219849e-01</internalNodes>
          <leafValues>
            3.7424426525831223e-02 -5.8731722831726074e-01</leafValues></_>
        <_>
          <internalNodes>
            0 -1 2531 5.8824769221246243e-03</internalNodes>
          <leafValues>
            -9.0122871100902557e-02 2.7224677801132202e-01</leafValues></_>
        <_>
          <internalNodes>
            0 -1 1313 -3.3370822668075562e-02</internalNodes>
          <leafValues>
            -5.8158725500106812e-01 4.1985996067523956e-02</leafValues></_>
        <_>
          <internalNodes>
            0 -1 683 -7.5724430382251740e-02</internalNodes>
          <leafValues>
            -7.4167442321777344e-01 2.4940261617302895e-02</leafValues></_>
        <_>
          <internalNodes>
            0 -1 3607 2.9899091459810734e-03</internalNodes>
          <leafValues>
            -1.2392475455999374e-01 1.7776569724082947e-01</leafValues></_>
        <_>
          <internalNodes>
            0 -1 3638 1.3195035280659795e-03</internalNodes>
          <leafValues>
            6.9262601435184479e-02 -3.3542501926422119e-01</leafValues></_>
        <_>
          <internalNodes>
            0 -1 2236 1.3281157240271568e-02</internalNodes>
          <leafValues>
            -6.4467720687389374e-02 3.6106684803962708e-01</leafValues></_>
        <_>
          <internalNodes>
            0 -1 337 1.0100420564413071e-02</internalNodes>
          <leafValues>
            -1.3747337460517883e-01 1.7197939753532410e-01</leafValues></_>
        <_>
          <internalNodes>
            0 -1 1231 -1.8502726452425122e-03</internalNodes>
          <leafValues>
            -2.9599413275718689e-01 7.8723177313804626e-02</leafValues></_>
        <_>
          <internalNodes>
            0 -1 2271 -1.7248213291168213e-02</internalNodes>
          <leafValues>
            -5.0543808937072754e-01 4.3538406491279602e-02</leafValues></_>
        <_>
          <internalNodes>
            0 -1 3452 8.5301958024501801e-02</internalNodes>
          <leafValues>
            6.1207205057144165e-02 -3.5826745629310608e-01</leafValues></_>
        <_>
          <internalNodes>
            0 -1 1726 1.0970453877234831e-04</internalNodes>
          <leafValues>
            -4.0586948394775391e-01 5.6323181837797165e-02</leafValues></_>
        <_>
          <internalNodes>
            0 -1 126 -8.2871228456497192e-02</internalNodes>
          <leafValues>
            -4.4089701771736145e-01 4.5552264899015427e-02</leafValues></_>
        <_>
          <internalNodes>
            0 -1 2973 6.1109922826290131e-03</internalNodes>
          <leafValues>
            -5.6493319571018219e-02 3.8884374499320984e-01</leafValues></_>
        <_>
          <internalNodes>
            0 -1 3053 4.0601700544357300e-02</internalNodes>
          <leafValues>
            4.4639799743890762e-02 -5.2660351991653442e-01</leafValues></_>
        <_>
          <internalNodes>
            0 -1 3396 -6.5288768382743001e-05</internalNodes>
          <leafValues>
            1.3036662340164185e-01 -1.6538839042186737e-01</leafValues></_>
        <_>
          <internalNodes>
            0 -1 953 -1.5780877321958542e-02</internalNodes>
          <leafValues>
            -4.6200048923492432e-01 4.2732115834951401e-02</leafValues></_>
        <_>
          <internalNodes>
            0 -1 2553 -1.0966307483613491e-02</internalNodes>
          <leafValues>
            4.0518110990524292e-01 -5.4015733301639557e-02</leafValues></_>
        <_>
          <internalNodes>
            0 -1 891 -1.0430602729320526e-01</internalNodes>
          <leafValues>
            -5.5671179294586182e-01 3.9348997175693512e-02</leafValues></_>
        <_>
          <internalNodes>
            0 -1 3348 -3.2522413675906137e-05</internalNodes>
          <leafValues>
            8.9062057435512543e-02 -2.2074788808822632e-01</leafValues></_>
        <_>
          <internalNodes>
